Language model created by QuickLM on Mon Jun 15 02:25:54 EDT 2015
Copyright (c) 1996-2010 Carnegie Mellon University and Alexander I. Rudnicky

The model is in standard ARPA format, designed by Doug Paul while he was at MITRE.

The code that was used to produce this language model is available in Open Source.
Please visit http://www.speech.cs.cmu.edu/tools/ for more information

The (fixed) discount mass is 0.5. The backoffs are computed using the ratio method.
This model based on a corpus of 28 sentences and 40 words

\data\
ngram 1=40
ngram 2=64
ngram 3=68

\1-grams:
-2.5211 84 -0.2628
-1.0740 </s> -0.3010
-1.0740 <s> -0.2628
-1.9191 ABOUT -0.2740
-2.2201 AT -0.2864
-2.5211 ATRIUM -0.2628
-2.5211 CONFERENCE -0.2997
-2.2201 DIRECTIONS -0.2877
-2.2201 DO -0.2984
-2.0440 DOCTOR -0.2971
-2.5211 EB -0.2997
-2.2201 GET -0.2877
-1.9191 GIVE -0.2850
-2.2201 GO -0.2877
-2.5211 GOES -0.2997
-2.5211 HALL -0.2628
-2.5211 HAPPENS -0.2984
-2.2201 HOW -0.2984
-2.2201 I -0.2984
-2.2201 INFORMATION -0.2958
-2.5211 INTEL -0.2984
-1.9191 IS -0.2740
-2.2201 LAB -0.2628
-2.2201 LETS -0.2984
-1.4797 LOCATION -0.2628
-1.4420 ME -0.2740
-1.7430 OFFICE -0.2628
-2.5211 ON -0.2984
-2.5211 PERKOWSKI -0.2628
-1.5669 PERSON -0.2541
-2.5211 ROBOTICS -0.2984
-2.5211 ROOM -0.2628
-2.2201 SHOW -0.2850
-2.5211 SONG -0.2628
-2.2201 TAKE -0.2850
-1.9191 TELL -0.2850
-1.5211 TO -0.2740
-2.0440 WHAT -0.2931
-2.2201 WHERE -0.2958
-2.5211 WHO -0.2958

\2-grams:
-0.3010 84 </s> -0.3010
-1.7482 <s> ATRIUM 0.0000
-1.7482 <s> CONFERENCE 0.0000
-1.2711 <s> DOCTOR 0.0000
-1.7482 <s> EB 0.0000
-1.1461 <s> GIVE 0.0000
-1.4472 <s> HOW 0.0000
-1.7482 <s> INTEL 0.0000
-1.4472 <s> LETS 0.0000
-1.7482 <s> ROBOTICS 0.0000
-1.4472 <s> SHOW 0.0000
-1.4472 <s> TAKE 0.0000
-1.1461 <s> TELL 0.0000
-1.2711 <s> WHAT 0.0000
-1.7482 <s> WHO 0.0000
-0.6021 ABOUT LOCATION 0.0000
-0.6021 ABOUT PERSON -0.2218
-0.3010 AT LOCATION 0.0000
-0.3010 ATRIUM </s> -0.3010
-0.3010 CONFERENCE ROOM 0.0000
-0.3010 DIRECTIONS TO 0.0000
-0.3010 DO I 0.0000
-0.7782 DOCTOR HALL 0.0000
-0.7782 DOCTOR PERKOWSKI 0.0000
-0.7782 DOCTOR SONG 0.0000
-0.3010 EB 84 0.0000
-0.3010 GET TO 0.0000
-0.3010 GIVE ME -0.2218
-0.3010 GO TO 0.0000
-0.3010 GOES ON 0.0000
-0.3010 HALL </s> -0.3010
-0.3010 HAPPENS AT 0.0000
-0.3010 HOW DO 0.0000
-0.3010 I GET 0.0000
-0.3010 INFORMATION ABOUT 0.0000
-0.3010 INTEL LAB 0.0000
-0.6021 IS LOCATION 0.0000
-0.6021 IS PERSON 0.0000
-0.3010 LAB </s> -0.3010
-0.3010 LETS GO 0.0000
-0.3010 LOCATION </s> -0.3010
-1.0792 ME ABOUT 0.0000
-1.0792 ME DIRECTIONS 0.0000
-1.0792 ME INFORMATION 0.0000
-0.7782 ME TO 0.0000
-1.0792 ME WHERE 0.0000
-0.3010 OFFICE </s> -0.3010
-0.3010 ON AT 0.0000
-0.3010 PERKOWSKI </s> -0.3010
-0.7782 PERSON </s> -0.3010
-0.4771 PERSON OFFICE 0.0000
-0.3010 ROBOTICS LAB 0.0000
-0.3010 ROOM </s> -0.3010
-0.3010 SHOW ME -0.2218
-0.3010 SONG </s> -0.3010
-0.3010 TAKE ME -0.2218
-0.3010 TELL ME -0.2218
-0.6021 TO LOCATION 0.0000
-0.6021 TO PERSON -0.1249
-0.7782 WHAT GOES 0.0000
-0.7782 WHAT HAPPENS 0.0000
-0.7782 WHAT IS -0.1761
-0.3010 WHERE IS 0.0000
-0.3010 WHO IS -0.1761

\3-grams:
-0.3010 <s> ATRIUM </s>
-0.3010 <s> CONFERENCE ROOM
-0.7782 <s> DOCTOR HALL
-0.7782 <s> DOCTOR PERKOWSKI
-0.7782 <s> DOCTOR SONG
-0.3010 <s> EB 84
-0.3010 <s> GIVE ME
-0.3010 <s> HOW DO
-0.3010 <s> INTEL LAB
-0.3010 <s> LETS GO
-0.3010 <s> ROBOTICS LAB
-0.3010 <s> SHOW ME
-0.3010 <s> TAKE ME
-0.3010 <s> TELL ME
-0.7782 <s> WHAT GOES
-0.7782 <s> WHAT HAPPENS
-0.7782 <s> WHAT IS
-0.3010 <s> WHO IS
-0.3010 ABOUT LOCATION </s>
-0.3010 ABOUT PERSON </s>
-0.3010 AT LOCATION </s>
-0.3010 CONFERENCE ROOM </s>
-0.6021 DIRECTIONS TO LOCATION
-0.6021 DIRECTIONS TO PERSON
-0.3010 DO I GET
-0.3010 DOCTOR HALL </s>
-0.3010 DOCTOR PERKOWSKI </s>
-0.3010 DOCTOR SONG </s>
-0.3010 EB 84 </s>
-0.6021 GET TO LOCATION
-0.6021 GET TO PERSON
-0.6021 GIVE ME DIRECTIONS
-0.6021 GIVE ME INFORMATION
-0.6021 GO TO LOCATION
-0.6021 GO TO PERSON
-0.3010 GOES ON AT
-0.3010 HAPPENS AT LOCATION
-0.3010 HOW DO I
-0.3010 I GET TO
-0.6021 INFORMATION ABOUT LOCATION
-0.6021 INFORMATION ABOUT PERSON
-0.3010 INTEL LAB </s>
-0.3010 IS LOCATION </s>
-0.6021 IS PERSON </s>
-0.6021 IS PERSON OFFICE
-0.3010 LETS GO TO
-0.6021 ME ABOUT LOCATION
-0.6021 ME ABOUT PERSON
-0.3010 ME DIRECTIONS TO
-0.3010 ME INFORMATION ABOUT
-0.6021 ME TO LOCATION
-0.6021 ME TO PERSON
-0.3010 ME WHERE IS
-0.3010 ON AT LOCATION
-0.3010 PERSON OFFICE </s>
-0.3010 ROBOTICS LAB </s>
-0.3010 SHOW ME TO
-0.3010 TAKE ME TO
-0.6021 TELL ME ABOUT
-0.6021 TELL ME WHERE
-0.3010 TO LOCATION </s>
-0.3010 TO PERSON OFFICE
-0.3010 WHAT GOES ON
-0.3010 WHAT HAPPENS AT
-0.3010 WHAT IS LOCATION
-0.6021 WHERE IS LOCATION
-0.6021 WHERE IS PERSON
-0.3010 WHO IS PERSON

\end\
