Language model created by QuickLM on Sun Aug 21 13:32:11 EDT 2016
Copyright (c) 1996-2010 Carnegie Mellon University and Alexander I. Rudnicky

The model is in standard ARPA format, designed by Doug Paul while he was at MITRE.

The code that was used to produce this language model is available in Open Source.
Please visit http://www.speech.cs.cmu.edu/tools/ for more information

The (fixed) discount mass is 0.5. The backoffs are computed using the ratio method.
This model based on a corpus of 95 sentences and 96 words

\data\
ngram 1=96
ngram 2=184
ngram 3=162

\1-grams:
-0.9898 </s> -0.3010
-0.9898 <s> -0.2344
-2.0133 A -0.2959
-1.7915 ABOUT -0.2366
-2.6665 ARMSTRONG -0.2541
-2.9675 ATRIUM -0.2541
-2.9675 BY -0.2541
-2.9675 BYE -0.2977
-2.6665 CALCULATE -0.2541
-2.9675 CAN -0.3006
-2.9675 CONFERENCE -0.3006
-2.9675 DANCE -0.2541
-2.9675 DATE -0.3006
-2.9675 DIVIDE -0.2541
-2.9675 DIVIDED -0.3006
-2.4904 DOCOTOR -0.2949
-2.1894 DOCTOR -0.2949
-2.9675 DOUG -0.2987
-2.9675 DOUGLAS -0.2987
-2.6665 EB -0.3001
-2.9675 EIFFEL -0.3006
-2.9675 EIGHT -0.2541
-2.9675 EIGHTEEN -0.2541
-2.6665 EIGHTY -0.2996
-2.9675 ELEVEN -0.2541
-2.9675 FACT -0.2541
-2.9675 FIFTEEN -0.2541
-2.9675 FIVE -0.2541
-2.4904 FOUR -0.2541
-2.9675 FOURTEEN -0.2541
-2.9675 FUN -0.3006
-2.2686 GIVE -0.2843
-2.2686 HALL -0.2541
-2.9675 HELLO -0.2977
-2.9675 HI -0.2977
-2.9675 I -0.3006
-2.6665 INTEL -0.2963
-2.9675 INTELL -0.2963
-2.2686 INTELLIGENT -0.2968
-2.6665 IS -0.2959
-2.9675 IT -0.2541
-2.1224 JEEVES -0.2505
-2.9675 JOKE -0.2541
-2.6665 JOSH -0.3001
-1.9675 LAB -0.2541
-2.6665 LABORATORY -0.2541
-2.4904 LEADER -0.2541
-2.9675 LIKE -0.2968
-2.6665 LISTEN -0.2541
-2.9675 MAREK -0.2992
-2.6665 MATHIAS -0.3001
-1.4235 ME -0.2838
-2.9675 MINUS -0.2541
-2.9675 MULTIPLY -0.2541
-2.9675 NINE -0.2541
-2.9675 NINETEEN -0.2541
-2.9675 ONE -0.2541
-2.3655 PERKOWSKI -0.2541
-2.6665 PLEASE -0.2987
-2.9675 PLUS -0.2541
-2.9675 PORTLAND -0.3006
-2.9675 PSU -0.2541
-2.6665 RICK -0.3001
-2.0133 ROBOTICS -0.2954
-2.9675 ROOM -0.2541
-2.6665 SACKOS -0.2541
-2.9675 SEVEN -0.2541
-2.9675 SEVENTEEN -0.2541
-2.9675 SIX -0.2541
-2.9675 SIXTEEN -0.2541
-2.3655 SONG -0.2541
-2.9675 STATE -0.3006
-2.9675 STORY -0.2541
-2.9675 SUBTRACT -0.2541
-2.6665 SUNARDI -0.2541
-1.8884 TAKE -0.2843
-1.7123 TELL -0.2843
-2.9675 TEN -0.2541
-1.9675 THE -0.2452
-2.9675 THIRTEEN -0.2541
-2.9675 THREE -0.2541
-2.9675 TIME -0.3001
-2.9675 TIMES -0.2541
-1.8884 TO -0.2430
-2.9675 TODAY -0.2541
-2.0645 TOUR -0.2541
-2.9675 TOWER -0.2541
-2.9675 TWELVE -0.2541
-2.9675 TWENTY -0.2541
-2.9675 TWO -0.2541
-2.9675 UNIVERSITY -0.2541
-2.6665 WHAT -0.2996
-2.9675 WOULD -0.3006
-2.9675 XIAOYU -0.2992
-2.9675 YOU -0.3001
-2.4904 YOUR -0.2526

\2-grams:
-2.2788 <s> ATRIUM 0.0000
-2.2788 <s> BYE 0.0000
-1.9777 <s> CALCULATE 0.0000
-2.2788 <s> CAN 0.0000
-2.2788 <s> CONFERENCE 0.0000
-2.2788 <s> DANCE 0.0000
-2.2788 <s> DIVIDE 0.0000
-2.2788 <s> DIVIDED 0.0000
-1.8016 <s> DOCTOR 0.0000
-2.2788 <s> DOUG 0.0000
-2.2788 <s> DOUGLAS 0.0000
-2.2788 <s> EB 0.0000
-2.2788 <s> EIFFEL 0.0000
-2.2788 <s> EIGHT 0.0000
-2.2788 <s> EIGHTEEN 0.0000
-2.2788 <s> ELEVEN 0.0000
-2.2788 <s> FIFTEEN 0.0000
-2.2788 <s> FIVE 0.0000
-2.2788 <s> FOUR 0.0000
-2.2788 <s> FOURTEEN 0.0000
-1.9777 <s> GIVE 0.0000
-2.2788 <s> HELLO 0.0000
-2.2788 <s> HI 0.0000
-2.2788 <s> I 0.0000
-2.2788 <s> INTELL 0.0000
-2.2788 <s> INTELLIGENT 0.0000
-1.6767 <s> JEEVES 0.0000
-2.2788 <s> JOSH 0.0000
-2.2788 <s> LEADER 0.0000
-2.2788 <s> LISTEN 0.0000
-2.2788 <s> MAREK 0.0000
-2.2788 <s> MATHIAS 0.0000
-2.2788 <s> MINUS 0.0000
-2.2788 <s> MULTIPLY 0.0000
-2.2788 <s> NINE 0.0000
-2.2788 <s> NINETEEN 0.0000
-2.2788 <s> ONE 0.0000
-2.2788 <s> PLEASE 0.0000
-2.2788 <s> PLUS 0.0000
-2.2788 <s> RICK 0.0000
-2.2788 <s> ROBOTICS -0.0872
-2.2788 <s> SEVEN 0.0000
-2.2788 <s> SEVENTEEN 0.0000
-2.2788 <s> SIX 0.0000
-2.2788 <s> SIXTEEN 0.0000
-2.2788 <s> SUBTRACT 0.0000
-1.1996 <s> TAKE 0.0000
-1.0235 <s> TELL 0.0000
-2.2788 <s> TEN 0.0000
-2.2788 <s> THIRTEEN 0.0000
-2.2788 <s> THREE 0.0000
-2.2788 <s> TIMES 0.0000
-1.9777 <s> TOUR 0.0000
-2.2788 <s> TWELVE 0.0000
-2.2788 <s> TWENTY 0.0000
-2.2788 <s> TWO 0.0000
-1.9777 <s> WHAT 0.0000
-2.2788 <s> XIAOYU 0.0000
-1.2553 A FUN 0.0000
-1.2553 A JOKE 0.0000
-1.2553 A STORY 0.0000
-0.4771 A TOUR 0.0000
-1.4771 ABOUT </s> -0.3010
-1.0000 ABOUT DOCOTOR 0.0000
-1.4771 ABOUT JOSH 0.0000
-1.4771 ABOUT MATHIAS 0.0000
-1.4771 ABOUT PORTLAND 0.0000
-1.4771 ABOUT PSU 0.0000
-1.4771 ABOUT RICK 0.0000
-1.4771 ABOUT ROBOTICS -0.0872
-0.8751 ABOUT THE -0.0792
-1.4771 ABOUT YOUR -0.1249
-0.3010 ARMSTRONG </s> -0.3010
-0.3010 ATRIUM </s> -0.3010
-0.3010 BY </s> -0.3010
-0.3010 BYE JEEVES -0.1091
-0.3010 CALCULATE </s> -0.3010
-0.3010 CAN YOU 0.0000
-0.3010 CONFERENCE ROOM 0.0000
-0.3010 DANCE </s> -0.3010
-0.3010 DATE TODAY 0.0000
-0.3010 DIVIDE </s> -0.3010
-0.3010 DIVIDED BY 0.0000
-0.7782 DOCOTOR HALL 0.0000
-0.7782 DOCOTOR PERKOWSKI 0.0000
-0.7782 DOCOTOR SONG 0.0000
-0.7782 DOCTOR HALL 0.0000
-0.7782 DOCTOR PERKOWSKI 0.0000
-0.7782 DOCTOR SONG 0.0000
-0.3010 DOUG HALL 0.0000
-0.3010 DOUGLAS HALL 0.0000
-0.3010 EB EIGHTY 0.0000
-0.3010 EIFFEL TOWER 0.0000
-0.3010 EIGHT </s> -0.3010
-0.3010 EIGHTEEN </s> -0.3010
-0.3010 EIGHTY FOUR 0.0000
-0.3010 ELEVEN </s> -0.3010
-0.3010 FACT </s> -0.3010
-0.3010 FIFTEEN </s> -0.3010
-0.3010 FIVE </s> -0.3010
-0.3010 FOUR </s> -0.3010
-0.3010 FOURTEEN </s> -0.3010
-0.3010 FUN FACT 0.0000
-0.3010 GIVE ME -0.2483
-0.3010 HALL </s> -0.3010
-0.3010 HELLO JEEVES -0.1091
-0.3010 HI JEEVES -0.1091
-0.3010 I WOULD 0.0000
-0.3010 INTEL LAB 0.0000
-0.3010 INTELL LAB 0.0000
-0.3010 INTELLIGENT ROBOTICS 0.0000
-0.6021 IS IT 0.0000
-0.6021 IS THE -0.2788
-0.3010 IT </s> -0.3010
-0.4472 JEEVES </s> -0.3010
-1.1461 JEEVES GIVE 0.0000
-1.1461 JEEVES LISTEN 0.0000
-0.3010 JOKE </s> -0.3010
-0.3010 JOSH SACKOS 0.0000
-0.3010 LAB </s> -0.3010
-0.3010 LABORATORY </s> -0.3010
-0.3010 LEADER </s> -0.3010
-0.3010 LIKE A -0.1249
-0.3010 LISTEN </s> -0.3010
-0.3010 MAREK PERKOWSKI 0.0000
-0.3010 MATHIAS SUNARDI 0.0000
-0.9420 ME A 0.0000
-0.6690 ME ABOUT 0.0000
-0.7659 ME TO 0.0000
-0.3010 MINUS </s> -0.3010
-0.3010 MULTIPLY </s> -0.3010
-0.3010 NINE </s> -0.3010
-0.3010 NINETEEN </s> -0.3010
-0.3010 ONE </s> -0.3010
-0.3010 PERKOWSKI </s> -0.3010
-0.3010 PLEASE GIVE 0.0000
-0.3010 PLUS </s> -0.3010
-0.3010 PORTLAND STATE 0.0000
-0.3010 PSU </s> -0.3010
-0.3010 RICK ARMSTRONG 0.0000
-0.4102 ROBOTICS LAB 0.0000
-0.9542 ROBOTICS LABORATORY 0.0000
-0.3010 ROOM </s> -0.3010
-0.3010 SACKOS </s> -0.3010
-0.3010 SEVEN </s> -0.3010
-0.3010 SEVENTEEN </s> -0.3010
-0.3010 SIX </s> -0.3010
-0.3010 SIXTEEN </s> -0.3010
-0.3010 SONG </s> -0.3010
-0.3010 STATE UNIVERSITY 0.0000
-0.3010 STORY </s> -0.3010
-0.3010 SUBTRACT </s> -0.3010
-0.3010 SUNARDI </s> -0.3010
-0.3010 TAKE ME -0.2194
-0.3010 TELL ME -0.1280
-0.3010 TEN </s> -0.3010
-1.3010 THE </s> -0.3010
-1.3010 THE DATE 0.0000
-1.0000 THE INTEL 0.0000
-0.6990 THE INTELLIGENT 0.0000
-1.0000 THE ROBOTICS -0.0872
-0.3010 THIRTEEN </s> -0.3010
-0.3010 THREE </s> -0.3010
-0.3010 TIME IS -0.1761
-0.3010 TIMES </s> -0.3010
-1.3802 TO </s> -0.3010
-0.9031 TO DOCTOR 0.0000
-1.3802 TO EB 0.0000
-0.6812 TO THE -0.0414
-1.0792 TO YOUR 0.0000
-0.3010 TODAY </s> -0.3010
-0.3010 TOUR </s> -0.3010
-0.3010 TOWER </s> -0.3010
-0.3010 TWELVE </s> -0.3010
-0.3010 TWENTY </s> -0.3010
-0.3010 TWO </s> -0.3010
-0.3010 UNIVERSITY </s> -0.3010
-0.6021 WHAT IS -0.1761
-0.6021 WHAT TIME 0.0000
-0.3010 WOULD LIKE 0.0000
-0.3010 XIAOYU SONG 0.0000
-0.3010 YOU PLEASE 0.0000
-0.7782 YOUR </s> -0.3010
-0.4771 YOUR LEADER 0.0000

\3-grams:
-0.3010 <s> ATRIUM </s>
-0.3010 <s> BYE JEEVES
-0.3010 <s> CALCULATE </s>
-0.3010 <s> CAN YOU
-0.3010 <s> CONFERENCE ROOM
-0.3010 <s> DANCE </s>
-0.3010 <s> DIVIDE </s>
-0.3010 <s> DIVIDED BY
-0.7782 <s> DOCTOR HALL
-0.7782 <s> DOCTOR PERKOWSKI
-0.7782 <s> DOCTOR SONG
-0.3010 <s> DOUG HALL
-0.3010 <s> DOUGLAS HALL
-0.3010 <s> EB EIGHTY
-0.3010 <s> EIFFEL TOWER
-0.3010 <s> EIGHT </s>
-0.3010 <s> EIGHTEEN </s>
-0.3010 <s> ELEVEN </s>
-0.3010 <s> FIFTEEN </s>
-0.3010 <s> FIVE </s>
-0.3010 <s> FOUR </s>
-0.3010 <s> FOURTEEN </s>
-0.3010 <s> GIVE ME
-0.3010 <s> HELLO JEEVES
-0.3010 <s> HI JEEVES
-0.3010 <s> I WOULD
-0.3010 <s> INTELL LAB
-0.3010 <s> INTELLIGENT ROBOTICS
-0.6021 <s> JEEVES </s>
-0.9031 <s> JEEVES GIVE
-0.9031 <s> JEEVES LISTEN
-0.3010 <s> JOSH SACKOS
-0.3010 <s> LEADER </s>
-0.3010 <s> LISTEN </s>
-0.3010 <s> MAREK PERKOWSKI
-0.3010 <s> MATHIAS SUNARDI
-0.3010 <s> MINUS </s>
-0.3010 <s> MULTIPLY </s>
-0.3010 <s> NINE </s>
-0.3010 <s> NINETEEN </s>
-0.3010 <s> ONE </s>
-0.3010 <s> PLEASE GIVE
-0.3010 <s> PLUS </s>
-0.3010 <s> RICK ARMSTRONG
-0.3010 <s> ROBOTICS LAB
-0.3010 <s> SEVEN </s>
-0.3010 <s> SEVENTEEN </s>
-0.3010 <s> SIX </s>
-0.3010 <s> SIXTEEN </s>
-0.3010 <s> SUBTRACT </s>
-0.3010 <s> TAKE ME
-0.3010 <s> TELL ME
-0.3010 <s> TEN </s>
-0.3010 <s> THIRTEEN </s>
-0.3010 <s> THREE </s>
-0.3010 <s> TIMES </s>
-0.3010 <s> TOUR </s>
-0.3010 <s> TWELVE </s>
-0.3010 <s> TWENTY </s>
-0.3010 <s> TWO </s>
-0.6021 <s> WHAT IS
-0.6021 <s> WHAT TIME
-0.3010 <s> XIAOYU SONG
-0.3010 A FUN FACT
-0.3010 A JOKE </s>
-0.3010 A STORY </s>
-0.3010 A TOUR </s>
-0.7782 ABOUT DOCOTOR HALL
-0.7782 ABOUT DOCOTOR PERKOWSKI
-0.7782 ABOUT DOCOTOR SONG
-0.3010 ABOUT JOSH SACKOS
-0.3010 ABOUT MATHIAS SUNARDI
-0.3010 ABOUT PORTLAND STATE
-0.3010 ABOUT PSU </s>
-0.3010 ABOUT RICK ARMSTRONG
-0.3010 ABOUT ROBOTICS LAB
-0.9031 ABOUT THE INTEL
-0.6021 ABOUT THE INTELLIGENT
-0.9031 ABOUT THE ROBOTICS
-0.3010 ABOUT YOUR LEADER
-0.3010 BYE JEEVES </s>
-0.3010 CAN YOU PLEASE
-0.3010 CONFERENCE ROOM </s>
-0.3010 DATE TODAY </s>
-0.3010 DIVIDED BY </s>
-0.3010 DOCOTOR HALL </s>
-0.3010 DOCOTOR PERKOWSKI </s>
-0.3010 DOCOTOR SONG </s>
-0.3010 DOCTOR HALL </s>
-0.3010 DOCTOR PERKOWSKI </s>
-0.3010 DOCTOR SONG </s>
-0.3010 DOUG HALL </s>
-0.3010 DOUGLAS HALL </s>
-0.3010 EB EIGHTY FOUR
-0.3010 EIFFEL TOWER </s>
-0.3010 EIGHTY FOUR </s>
-0.3010 FUN FACT </s>
-0.3010 GIVE ME A
-0.3010 HELLO JEEVES </s>
-0.3010 HI JEEVES </s>
-0.3010 I WOULD LIKE
-0.3010 INTEL LAB </s>
-0.3010 INTELL LAB </s>
-0.5229 INTELLIGENT ROBOTICS LAB
-0.6990 INTELLIGENT ROBOTICS LABORATORY
-0.3010 IS IT </s>
-0.3010 IS THE DATE
-0.3010 JEEVES GIVE ME
-0.3010 JEEVES LISTEN </s>
-0.3010 JOSH SACKOS </s>
-0.3010 LIKE A TOUR
-0.3010 MAREK PERKOWSKI </s>
-0.3010 MATHIAS SUNARDI </s>
-1.2041 ME A FUN
-1.2041 ME A JOKE
-1.2041 ME A STORY
-0.5051 ME A TOUR
-1.4771 ME ABOUT </s>
-1.0000 ME ABOUT DOCOTOR
-1.4771 ME ABOUT JOSH
-1.4771 ME ABOUT MATHIAS
-1.4771 ME ABOUT PORTLAND
-1.4771 ME ABOUT PSU
-1.4771 ME ABOUT RICK
-1.4771 ME ABOUT ROBOTICS
-0.8751 ME ABOUT THE
-1.4771 ME ABOUT YOUR
-1.3802 ME TO </s>
-0.9031 ME TO DOCTOR
-1.3802 ME TO EB
-0.6812 ME TO THE
-1.0792 ME TO YOUR
-0.3010 PLEASE GIVE ME
-0.3010 PORTLAND STATE UNIVERSITY
-0.3010 RICK ARMSTRONG </s>
-0.3010 ROBOTICS LAB </s>
-0.3010 ROBOTICS LABORATORY </s>
-0.3010 STATE UNIVERSITY </s>
-0.3010 TAKE ME TO
-1.0792 TELL ME A
-0.3802 TELL ME ABOUT
-0.3010 THE DATE TODAY
-0.3010 THE INTEL LAB
-0.3010 THE INTELLIGENT ROBOTICS
-0.3010 THE ROBOTICS LAB
-0.3010 TIME IS IT
-0.7782 TO DOCTOR HALL
-0.7782 TO DOCTOR PERKOWSKI
-0.7782 TO DOCTOR SONG
-0.3010 TO EB EIGHTY
-1.0000 TO THE </s>
-1.0000 TO THE INTEL
-0.6990 TO THE INTELLIGENT
-1.0000 TO THE ROBOTICS
-0.6021 TO YOUR </s>
-0.6021 TO YOUR LEADER
-0.3010 WHAT IS THE
-0.3010 WHAT TIME IS
-0.3010 WOULD LIKE A
-0.3010 XIAOYU SONG </s>
-0.3010 YOU PLEASE GIVE
-0.3010 YOUR LEADER </s>

\end\
