
\data\
ngram 1=116078
ngram 2=0
ngram 3=0

\1-grams:
-5.365891	#sharp-sign
-5.365891	%percent
-5.365891	&ampersand
-5.365891	,comma
-5.365891	-dash
-5.365891	-hyphen
-5.365891	/slash
-5.365891	84
-5.365891	:colon
-5.365891	;semi-colon
-0.3011067	</s>
-99	<s>
-5.365891	?question-mark
-5.06486	Armstrong
-5.365891	Atrium
-5.06486	Calculate
-5.365891	Conference
-5.06486	Dance
-4.587739	Doctor
-5.365891	EB
-5.365891	Give
-5.06486	Hall
-5.365891	Intel
-5.365891	Jeeves
-5.06486	Josh
-5.06486	Lab
-5.06486	Leader
-5.365891	Listen
-5.06486	Mathias
-5.06486	Perkowski
-5.06486	Rick
-5.365891	Robotics
-5.365891	Room
-5.06486	Sackos
-5.06486	Song
-5.06486	Sunardi
-4.587739	Take
-5.06486	Tell
-5.06486	Tour
-5.06486	a
-5.365891	a42128
-5.365891	aaa
-5.365891	aaberg
-5.365891	aachen
-5.365891	aachener
-5.365891	aaker
-5.365891	aalseth
-5.365891	aamodt
-5.365891	aancor
-5.365891	aardema
-5.365891	aardvark
-5.365891	aaron
-5.365891	aarons
-5.365891	aaronson
-5.365891	aarti
-5.365891	aase
-5.365891	aasen
-5.365891	ab
-5.365891	ababa
-5.365891	abacha
-5.365891	aback
-5.365891	abaco
-5.365891	abacus
-5.365891	abad
-5.365891	abadaka
-5.365891	abadi
-5.365891	abadie
-5.365891	abair
-5.365891	abalkin
-5.365891	abalone
-5.365891	abalos
-5.365891	abandon
-5.365891	abandoned
-5.365891	abandoning
-5.365891	abandonment
-5.365891	abandonments
-5.365891	abandons
-5.365891	abanto
-5.365891	abarca
-5.365891	abare
-5.365891	abascal
-5.365891	abash
-5.365891	abashed
-5.365891	abate
-5.365891	abated
-5.365891	abatement
-5.365891	abatements
-5.365891	abates
-5.365891	abating
-5.365891	abba
-5.365891	abbado
-5.365891	abbas
-5.365891	abbasi
-5.365891	abbate
-5.365891	abbatiello
-5.365891	abbe
-5.365891	abbenhaus
-5.365891	abbett
-5.365891	abbeville
-5.365891	abbey
-5.365891	abbie
-5.365891	abbitt
-5.365891	abbot
-5.365891	abbotstown
-5.365891	abbott
-5.365891	abbottstown
-5.365891	abboud
-5.365891	abbreviate
-5.365891	abbreviated
-5.365891	abbreviates
-5.365891	abbreviating
-5.365891	abbreviation
-5.365891	abbreviations
-5.365891	abbruzzese
-5.365891	abbs
-5.365891	abby
-5.365891	abco
-5.365891	abcotek
-5.365891	abdalla
-5.365891	abdallah
-5.365891	abdel
-5.365891	abdella
-5.365891	abdicate
-5.365891	abdicated
-5.365891	abdicates
-5.365891	abdicating
-5.365891	abdication
-5.365891	abdnor
-5.365891	abdo
-5.365891	abdollah
-5.365891	abdomen
-5.365891	abdominal
-5.365891	abduct
-5.365891	abducted
-5.365891	abductee
-5.365891	abductees
-5.365891	abducting
-5.365891	abduction
-5.365891	abductions
-5.365891	abductor
-5.365891	abductors
-5.365891	abducts
-5.365891	abdul
-5.365891	abdulaziz
-5.365891	abdulla
-5.365891	abdullah
-5.365891	abe
-5.365891	abed
-5.365891	abedi
-5.365891	abee
-5.365891	abel
-5.365891	abela
-5.365891	abelard
-5.365891	abele
-5.365891	abeles
-5.365891	abell
-5.365891	abella
-5.365891	abeln
-5.365891	abelow
-5.365891	abels
-5.365891	abelson
-5.365891	abend
-5.365891	abendroth
-5.365891	aber
-5.365891	abercrombie
-5.365891	aberdeen
-5.365891	aberford
-5.365891	aberg
-5.365891	aberle
-5.365891	abermin
-5.365891	abernathy
-5.365891	abernethy
-5.365891	aberrant
-5.365891	aberration
-5.365891	aberrational
-5.365891	aberrations
-5.365891	abert
-5.365891	abet
-5.365891	abetted
-5.365891	abetting
-5.365891	abex
-5.365891	abeyance
-5.365891	abeyta
-5.365891	abhor
-5.365891	abhorred
-5.365891	abhorrence
-5.365891	abhorrent
-5.365891	abhors
-5.365891	abiam
-5.365891	abid
-5.365891	abide
-5.365891	abided
-5.365891	abides
-5.365891	abiding
-5.365891	abidjan
-5.365891	abie
-5.365891	abigail
-5.365891	abila
-5.365891	abilene
-5.365891	abilities
-5.365891	ability
-5.365891	abimael
-5.365891	abimaels
-5.365891	abingdon
-5.365891	abington
-5.365891	abio
-5.365891	abiola
-5.365891	abiomed
-5.365891	abiquiu
-5.365891	abitibi
-5.365891	abitz
-5.365891	abject
-5.365891	abkhazia
-5.365891	abkhazian
-5.365891	abkhazians
-5.365891	ablaze
-5.365891	able
-5.365891	able-bodied
-5.365891	abled
-5.365891	abler
-5.365891	ables
-5.365891	ablest
-5.365891	abloom
-5.365891	ably
-5.365891	abner
-5.365891	abney
-5.365891	abnormal
-5.365891	abnormalities
-5.365891	abnormality
-5.365891	abnormally
-5.365891	abo
-5.365891	aboard
-5.365891	abode
-5.365891	abohalima
-5.365891	abolish
-5.365891	abolished
-5.365891	abolishes
-5.365891	abolishing
-5.365891	abolition
-5.365891	abolitionism
-5.365891	abolitionist
-5.365891	abolitionists
-5.365891	abominable
-5.365891	abomination
-5.365891	abood
-5.365891	aboodi
-5.365891	abor
-5.365891	aboriginal
-5.365891	aborigine
-5.365891	aborigines
-5.365891	aborn
-5.365891	abort
-5.365891	aborted
-5.365891	abortifacient
-5.365891	abortifacients
-5.365891	aborting
-5.365891	abortion
-5.365891	abortionist
-5.365891	abortionists
-5.365891	abortions
-5.365891	abortive
-5.365891	aborts
-5.365891	abott
-5.365891	abou
-5.365891	aboud
-5.365891	abouhalima
-5.365891	abound
-5.365891	abounded
-5.365891	abounding
-5.365891	abounds
-4.888769	about
-5.365891	above
-5.365891	aboveboard
-5.365891	abplanalp
-5.365891	abra
-5.365891	abracadabra
-5.365891	abraham
-5.365891	abrahamian
-5.365891	abrahams
-5.365891	abrahamsen
-5.365891	abrahamson
-5.365891	abram
-5.365891	abramczyk
-5.365891	abramo
-5.365891	abramovitz
-5.365891	abramowicz
-5.365891	abramowitz
-5.365891	abrams
-5.365891	abramson
-5.365891	abrasion
-5.365891	abrasions
-5.365891	abrasive
-5.365891	abrasives
-5.365891	abraxa
-5.365891	abraxas
-5.365891	abreast
-5.365891	abrego
-5.365891	abreu
-5.365891	abridge
-5.365891	abridged
-5.365891	abridgement
-5.365891	abridges
-5.365891	abridging
-5.365891	abril
-5.365891	abroad
-5.365891	abrogate
-5.365891	abrogated
-5.365891	abrogating
-5.365891	abrogation
-5.365891	abrol
-5.365891	abron
-5.365891	abrupt
-5.365891	abruptly
-5.365891	abruptness
-5.365891	abrutyn
-5.365891	abruzzese
-5.365891	abruzzo
-5.365891	abs
-5.365891	absalom
-5.365891	absaraka
-5.365891	abscam
-5.365891	abscess
-5.365891	abscond
-5.365891	absconded
-5.365891	absconding
-5.365891	absconds
-5.365891	absecon
-5.365891	absence
-5.365891	absences
-5.365891	absent
-5.365891	absentee
-5.365891	absenteeism
-5.365891	absentees
-5.365891	absentia
-5.365891	absher
-5.365891	abshier
-5.365891	abshire
-5.365891	absinthe
-5.365891	abso
-5.365891	absolom
-5.365891	absolut
-5.365891	absolute
-5.365891	absolutely
-5.365891	absoluteness
-5.365891	absolutes
-5.365891	absolution
-5.365891	absolutism
-5.365891	absolutist
-5.365891	absolve
-5.365891	absolved
-5.365891	absolves
-5.365891	absolving
-5.365891	absorb
-5.365891	absorbed
-5.365891	absorbency
-5.365891	absorbent
-5.365891	absorber
-5.365891	absorbers
-5.365891	absorbing
-5.365891	absorbs
-5.365891	absorption
-5.365891	abstain
-5.365891	abstained
-5.365891	abstaining
-5.365891	abstention
-5.365891	abstentions
-5.365891	abstinence
-5.365891	abstinent
-5.365891	abston
-5.365891	abstract
-5.365891	abstracted
-5.365891	abstraction
-5.365891	abstractions
-5.365891	abstracts
-5.365891	abstruse
-5.365891	absurd
-5.365891	absurdist
-5.365891	absurdities
-5.365891	absurdity
-5.365891	absurdly
-5.365891	abt
-5.365891	abts
-5.365891	abu
-5.365891	abudrahm
-5.365891	abuellah
-5.365891	abuladze
-5.365891	abundance
-5.365891	abundant
-5.365891	abundantly
-5.365891	aburto
-5.365891	abuse
-5.365891	abused
-5.365891	abuser
-5.365891	abusers
-5.365891	abuses
-5.365891	abusing
-5.365891	abusive
-5.365891	abut
-5.365891	abuts
-5.365891	abutted
-5.365891	abutting
-5.365891	abuzz
-5.365891	abysmal
-5.365891	abysmally
-5.365891	abyss
-5.365891	abyssinia
-5.365891	abyssinian
-5.365891	abzug
-5.365891	ac
-5.365891	aca
-5.365891	acacia
-5.365891	academe
-5.365891	academia
-5.365891	academic
-5.365891	academically
-5.365891	academician
-5.365891	academicians
-5.365891	academics
-5.365891	academies
-5.365891	academy
-5.365891	acadia
-5.365891	acampo
-5.365891	acampora
-5.365891	acantha
-5.365891	acapulco
-5.365891	acary
-5.365891	accardi
-5.365891	accardo
-5.365891	accede
-5.365891	acceded
-5.365891	accedes
-5.365891	acceding
-5.365891	accel
-5.365891	accelerant
-5.365891	accelerants
-5.365891	accelerate
-5.365891	accelerated
-5.365891	accelerates
-5.365891	accelerating
-5.365891	acceleration
-5.365891	accelerator
-5.365891	accelerators
-5.365891	accelerometer
-5.365891	accelerometers
-5.365891	accent
-5.365891	accented
-5.365891	accenting
-5.365891	accents
-5.365891	accentuate
-5.365891	accentuated
-5.365891	accentuates
-5.365891	accentuating
-5.365891	accept
-5.365891	acceptability
-5.365891	acceptable
-5.365891	acceptably
-5.365891	acceptance
-5.365891	acceptances
-5.365891	accepted
-5.365891	accepting
-5.365891	accepts
-5.365891	access
-5.365891	accessed
-5.365891	accessibility
-5.365891	accessible
-5.365891	accessing
-5.365891	accession
-5.365891	accessories
-5.365891	accessorize
-5.365891	accessorized
-5.365891	accessory
-5.365891	accetta
-5.365891	accident
-5.365891	accidental
-5.365891	accidentally
-5.365891	accidently
-5.365891	accidents
-5.365891	accion
-5.365891	accival
-5.365891	acclaim
-5.365891	acclaimed
-5.365891	acclaiming
-5.365891	acclaims
-5.365891	acclamation
-5.365891	acclimate
-5.365891	acclimated
-5.365891	acclimation
-5.365891	acco
-5.365891	accokeek
-5.365891	accola
-5.365891	accolade
-5.365891	accolades
-5.365891	accomando
-5.365891	accommodate
-5.365891	accommodated
-5.365891	accommodates
-5.365891	accommodating
-5.365891	accommodation
-5.365891	accommodations
-5.365891	accommodative
-5.365891	accompanied
-5.365891	accompanies
-5.365891	accompaniment
-5.365891	accompaniments
-5.365891	accompanist
-5.365891	accompany
-5.365891	accompanying
-5.365891	accompli
-5.365891	accomplice
-5.365891	accomplices
-5.365891	accomplish
-5.365891	accomplished
-5.365891	accomplishes
-5.365891	accomplishing
-5.365891	accomplishment
-5.365891	accomplishments
-5.365891	accor
-5.365891	accord
-5.365891	accordance
-5.365891	accorded
-5.365891	according
-5.365891	accordingly
-5.365891	accordion
-5.365891	accordions
-5.365891	accords
-5.365891	accost
-5.365891	accosted
-5.365891	accosting
-5.365891	account
-5.365891	accountability
-5.365891	accountable
-5.365891	accountancy
-5.365891	accountant
-5.365891	accountants
-5.365891	accounted
-5.365891	accountemp
-5.365891	accountemps
-5.365891	accounting
-5.365891	accounts
-5.365891	accouterment
-5.365891	accouterments
-5.365891	accoutrement
-5.365891	accoutrements
-5.365891	accredit
-5.365891	accreditation
-5.365891	accreditations
-5.365891	accredited
-5.365891	accrediting
-5.365891	accreted
-5.365891	accretion
-5.365891	accrual
-5.365891	accruals
-5.365891	accrue
-5.365891	accrued
-5.365891	accrues
-5.365891	accruing
-5.365891	accu
-5.365891	accuhealth
-5.365891	accumulate
-5.365891	accumulated
-5.365891	accumulates
-5.365891	accumulating
-5.365891	accumulation
-5.365891	accumulations
-5.365891	accumulative
-5.365891	accumulatively
-5.365891	accumulator
-5.365891	accumulators
-5.365891	accuracies
-5.365891	accuracy
-5.365891	accurate
-5.365891	accurately
-5.365891	accuray
-5.365891	accuride
-5.365891	accurso
-5.365891	accusation
-5.365891	accusations
-5.365891	accusative
-5.365891	accusatory
-5.365891	accuse
-5.365891	accused
-5.365891	accuser
-5.365891	accusers
-5.365891	accuses
-5.365891	accusing
-5.365891	accusingly
-5.365891	accustom
-5.365891	accustomed
-5.365891	accutane
-5.365891	ace
-5.365891	acecomm
-5.365891	aced
-5.365891	acer
-5.365891	acerbic
-5.365891	acero
-5.365891	acerra
-5.365891	aces
-5.365891	acetaminophen
-5.365891	acetate
-5.365891	acetic
-5.365891	aceto
-5.365891	acetochlor
-5.365891	acetone
-5.365891	acetosyringone
-5.365891	acetylcholine
-5.365891	acetylene
-5.365891	acevedo
-5.365891	aceves
-5.365891	acey
-5.365891	achaean
-5.365891	achatz
-5.365891	ache
-5.365891	achebe
-5.365891	ached
-5.365891	achee
-5.365891	achenbach
-5.365891	achenbaum
-5.365891	aches
-5.365891	acheson
-5.365891	achesons
-5.365891	achey
-5.365891	achieva
-5.365891	achievable
-5.365891	achieve
-5.365891	achieved
-5.365891	achievement
-5.365891	achievements
-5.365891	achiever
-5.365891	achievers
-5.365891	achieves
-5.365891	achieving
-5.365891	achille
-5.365891	achilles
-5.365891	aching
-5.365891	achingly
-5.365891	achmed
-5.365891	achoa
-5.365891	achor
-5.365891	achord
-5.365891	achorn
-5.365891	achtenberg
-5.365891	achterberg
-5.365891	achy
-5.365891	acid
-5.365891	acidic
-5.365891	acidification
-5.365891	acidified
-5.365891	acidifies
-5.365891	acidify
-5.365891	acidity
-5.365891	acidly
-5.365891	acidosis
-5.365891	acids
-5.365891	aciduria
-5.365891	acierno
-5.365891	ack
-5.365891	acker
-5.365891	ackerley
-5.365891	ackerly
-5.365891	ackerman
-5.365891	ackermann
-5.365891	ackermanville
-5.365891	ackerson
-5.365891	ackert
-5.365891	ackhouse
-5.365891	ackland
-5.365891	ackles
-5.365891	ackley
-5.365891	acklin
-5.365891	ackman
-5.365891	acknowledge
-5.365891	acknowledgeable
-5.365891	acknowledged
-5.365891	acknowledgement
-5.365891	acknowledgements
-5.365891	acknowledges
-5.365891	acknowledging
-5.365891	acknowledgment
-5.365891	ackroyd
-5.365891	acmat
-5.365891	acme
-5.365891	acne
-5.365891	acocella
-5.365891	acoff
-5.365891	acog
-5.365891	acolyte
-5.365891	acolytes
-5.365891	acord
-5.365891	acordia
-5.365891	acorn
-5.365891	acorns
-5.365891	acosta
-5.365891	acott
-5.365891	acoustic
-5.365891	acoustical
-5.365891	acoustically
-5.365891	acoustics
-5.365891	acquaint
-5.365891	acquaintance
-5.365891	acquaintances
-5.365891	acquaintanceship
-5.365891	acquainted
-5.365891	acquaviva
-5.365891	acquiesce
-5.365891	acquiesced
-5.365891	acquiescence
-5.365891	acquiescing
-5.365891	acquire
-5.365891	acquired
-5.365891	acquirer
-5.365891	acquirers
-5.365891	acquires
-5.365891	acquiring
-5.365891	acquisition
-5.365891	acquisitions
-5.365891	acquisitive
-5.365891	acquit
-5.365891	acquitaine
-5.365891	acquits
-5.365891	acquittal
-5.365891	acquittals
-5.365891	acquitted
-5.365891	acquitting
-5.365891	acre
-5.365891	acreage
-5.365891	acree
-5.365891	acres
-5.365891	acrey
-5.365891	acri
-5.365891	acrid
-5.365891	acrimonious
-5.365891	acrimony
-5.365891	acro
-5.365891	acrobat
-5.365891	acrobatic
-5.365891	acrobatics
-5.365891	acrobats
-5.365891	acrolein
-5.365891	acronym
-5.365891	acronyms
-5.365891	acropolis
-5.365891	across
-5.365891	acrylic
-5.365891	acrylics
-5.365891	act
-5.365891	actava
-5.365891	actavas
-5.365891	acted
-5.365891	actel
-5.365891	actigall
-5.365891	actin
-5.365891	acting
-5.365891	actinide
-5.365891	actinidia
-5.365891	actinomycosis
-5.365891	action
-5.365891	actionable
-5.365891	actions
-5.365891	activase
-5.365891	activate
-5.365891	activated
-5.365891	activates
-5.365891	activating
-5.365891	activation
-5.365891	activator
-5.365891	active
-5.365891	actively
-5.365891	actives
-5.365891	activision
-5.365891	activism
-5.365891	activist
-5.365891	activists
-5.365891	activities
-5.365891	activity
-5.365891	actmedia
-5.365891	actodine
-5.365891	acton
-5.365891	actor
-5.365891	actors
-5.365891	actress
-5.365891	actresses
-5.365891	acts
-5.365891	actual
-5.365891	actuality
-5.365891	actualize
-5.365891	actually
-5.365891	actuarial
-5.365891	actuaries
-5.365891	actuary
-5.365891	actuate
-5.365891	actuator
-5.365891	actuators
-5.365891	actus
-5.365891	acuff
-5.365891	acuity
-5.365891	acumen
-5.365891	acuna
-5.365891	acupuncture
-5.365891	acura
-5.365891	acuras
-5.365891	acuson
-5.365891	acustar
-5.365891	acusyst
-5.365891	acute
-5.365891	acutely
-5.365891	acuteness
-5.365891	acyclovir
-5.365891	ad
-5.365891	ad-hoc
-5.365891	ad-lib
-5.365891	ad-nauseum
-5.365891	ada
-5.365891	adabel
-5.365891	adabelle
-5.365891	adachi
-5.365891	adage
-5.365891	adagio
-5.365891	adah
-5.365891	adair
-5.365891	adaire
-5.365891	adak
-5.365891	adalah
-5.365891	adalia
-5.365891	adam
-5.365891	adamant
-5.365891	adamantly
-5.365891	adamcik
-5.365891	adamczak
-5.365891	adamczyk
-5.365891	adame
-5.365891	adamec
-5.365891	adamek
-5.365891	adames
-5.365891	adami
-5.365891	adamik
-5.365891	adamina
-5.365891	adamkus
-5.365891	adamo
-5.365891	adamowicz
-5.365891	adams
-5.365891	adamski
-5.365891	adamson
-5.365891	adamstown
-5.365891	adan
-5.365891	adapso
-5.365891	adapt
-5.365891	adaptability
-5.365891	adaptable
-5.365891	adaptaplex
-5.365891	adaptation
-5.365891	adaptations
-5.365891	adaptec
-5.365891	adapted
-5.365891	adapter
-5.365891	adapters
-5.365891	adapting
-5.365891	adaptive
-5.365891	adaptor
-5.365891	adaptors
-5.365891	adapts
-5.365891	adar
-5.365891	adarand
-5.365891	adas
-5.365891	aday
-5.365891	adaza
-5.365891	adcock
-5.365891	adcox
-5.365891	add
-5.365891	addair
-5.365891	addams
-5.365891	added
-5.365891	addendum
-5.365891	addendums
-5.365891	addeo
-5.365891	adder
-5.365891	adderley
-5.365891	addicks
-5.365891	addict
-5.365891	addicted
-5.365891	addicting
-5.365891	addiction
-5.365891	addictions
-5.365891	addictive
-5.365891	addicts
-5.365891	addidas
-5.365891	addidases
-5.365891	addie
-5.365891	adding
-5.365891	addington
-5.365891	addis
-5.365891	addis-ababa
-5.365891	addison
-5.365891	addition
-5.365891	additional
-5.365891	additionally
-5.365891	additions
-5.365891	additive
-5.365891	additives
-5.365891	addle
-5.365891	addled
-5.365891	addleman
-5.365891	address
-5.365891	addressable
-5.365891	addressed
-5.365891	addressee
-5.365891	addresses
-5.365891	addressing
-5.365891	adds
-5.365891	adduci
-5.365891	adduct
-5.365891	addwest
-5.365891	addy
-5.365891	addyston
-5.365891	ade
-5.365891	adee
-5.365891	adel
-5.365891	adela
-5.365891	adelaar
-5.365891	adelaide
-5.365891	adelanto
-5.365891	adelbert
-5.365891	adele
-5.365891	adeline
-5.365891	adelizzi
-5.365891	adell
-5.365891	adelle
-5.365891	adelman
-5.365891	adelmann
-5.365891	adelpha
-5.365891	adelphi
-5.365891	adelphia
-5.365891	adelsberger
-5.365891	adelson
-5.365891	adelstein
-5.365891	aden
-5.365891	adena
-5.365891	adenauer
-5.365891	adenine
-5.365891	adenoid
-5.365891	adenoids
-5.365891	adenoscan
-5.365891	adenosine
-5.365891	adenovirus
-5.365891	adept
-5.365891	adequacy
-5.365891	adequate
-5.365891	adequately
-5.365891	ader
-5.365891	aderhold
-5.365891	aderholt
-5.365891	aderman
-5.365891	ades
-5.365891	adey
-5.365891	adger
-5.365891	adham
-5.365891	adhere
-5.365891	adhered
-5.365891	adherence
-5.365891	adherent
-5.365891	adherents
-5.365891	adheres
-5.365891	adhering
-5.365891	adhesion
-5.365891	adhesive
-5.365891	adhesives
-5.365891	adia
-5.365891	adid
-5.365891	adidas
-5.365891	adieu
-5.365891	adin
-5.365891	adina
-5.365891	adine
-5.365891	adinolfi
-5.365891	adios
-5.365891	adipose
-5.365891	adirondack
-5.365891	adisq
-5.365891	adjacent
-5.365891	adjani
-5.365891	adjective
-5.365891	adjectives
-5.365891	adjoin
-5.365891	adjoining
-5.365891	adjoins
-5.365891	adjourn
-5.365891	adjourned
-5.365891	adjourning
-5.365891	adjournment
-5.365891	adjourns
-5.365891	adjudge
-5.365891	adjudged
-5.365891	adjudicate
-5.365891	adjudicated
-5.365891	adjudicating
-5.365891	adjudication
-5.365891	adjunct
-5.365891	adjuncts
-5.365891	adjust
-5.365891	adjustable
-5.365891	adjustables
-5.365891	adjusted
-5.365891	adjuster
-5.365891	adjusters
-5.365891	adjusting
-5.365891	adjustment
-5.365891	adjustments
-5.365891	adjusts
-5.365891	adjutant
-5.365891	adkins
-5.365891	adkinson
-5.365891	adkison
-5.365891	adkisson
-5.365891	adl-tabataba
-5.365891	adl-tabatabai
-5.365891	adlai
-5.365891	adler
-5.365891	adlers
-5.365891	adley
-5.365891	adlon
-5.365891	adlong
-5.365891	adman
-5.365891	admen
-5.365891	administer
-5.365891	administered
-5.365891	administering
-5.365891	administers
-5.365891	administrate
-5.365891	administrating
-5.365891	administration
-5.365891	administrations
-5.365891	administrative
-5.365891	administratively
-5.365891	administrator
-5.365891	administrators
-5.365891	admira
-5.365891	admirable
-5.365891	admirably
-5.365891	admiral
-5.365891	admirals
-5.365891	admiralty
-5.365891	admiration
-5.365891	admirations
-5.365891	admire
-5.365891	admired
-5.365891	admirer
-5.365891	admirers
-5.365891	admires
-5.365891	admiring
-5.365891	admiringly
-5.365891	admissibility
-5.365891	admissible
-5.365891	admission
-5.365891	admissions
-5.365891	admit
-5.365891	admits
-5.365891	admittance
-5.365891	admitted
-5.365891	admittedly
-5.365891	admitting
-5.365891	admonish
-5.365891	admonished
-5.365891	admonishes
-5.365891	admonishing
-5.365891	admonishment
-5.365891	admonition
-5.365891	admonitions
-5.365891	adnan
-5.365891	adney
-5.365891	ado
-5.365891	adobe
-5.365891	adolescence
-5.365891	adolescent
-5.365891	adolescents
-5.365891	adolf
-5.365891	adolfo
-5.365891	adolph
-5.365891	adolpha
-5.365891	adolphson
-5.365891	adolphus
-5.365891	adon
-5.365891	adonia
-5.365891	adonis
-5.365891	adopt
-5.365891	adoptable
-5.365891	adopted
-5.365891	adoptee
-5.365891	adoptees
-5.365891	adopter
-5.365891	adopters
-5.365891	adopting
-5.365891	adoption
-5.365891	adoptions
-5.365891	adoptive
-5.365891	adopts
-5.365891	ador
-5.365891	adora
-5.365891	adorabelle
-5.365891	adorable
-5.365891	adoration
-5.365891	adore
-5.365891	adored
-5.365891	adoree
-5.365891	adorees
-5.365891	adores
-5.365891	adoring
-5.365891	adorn
-5.365891	adorna
-5.365891	adorned
-5.365891	adorning
-5.365891	adornment
-5.365891	adorno
-5.365891	adorns
-5.365891	adra
-5.365891	adragna
-5.365891	adrda
-5.365891	adrea
-5.365891	adrenal
-5.365891	adrenalin
-5.365891	adrenaline
-5.365891	adria
-5.365891	adrian
-5.365891	adriana
-5.365891	adriance
-5.365891	adriano
-5.365891	adriatic
-5.365891	adriel
-5.365891	adrienne
-5.365891	adrift
-5.365891	adroit
-5.365891	adroitly
-5.365891	ads
-5.365891	adsit
-5.365891	adss
-5.365891	adstar
-5.365891	adsteam
-5.365891	adtec
-5.365891	adulate
-5.365891	adulation
-5.365891	aduliadae
-5.365891	adult
-5.365891	adulterate
-5.365891	adulterated
-5.365891	adulterates
-5.365891	adulteration
-5.365891	adulterer
-5.365891	adulterers
-5.365891	adulterous
-5.365891	adultery
-5.365891	adulthood
-5.365891	adults
-5.365891	adusdur
-5.365891	advacare
-5.365891	advalue
-5.365891	advance
-5.365891	advanced
-5.365891	advancement
-5.365891	advancements
-5.365891	advancer
-5.365891	advancers
-5.365891	advances
-5.365891	advancing
-5.365891	advani
-5.365891	advanta
-5.365891	advantage
-5.365891	advantaged
-5.365891	advantageous
-5.365891	advantages
-5.365891	advantest
-5.365891	advection
-5.365891	advent
-5.365891	adventist
-5.365891	adventists
-5.365891	adventure
-5.365891	adventurer
-5.365891	adventurers
-5.365891	adventures
-5.365891	adventuresome
-5.365891	adventurism
-5.365891	adventurous
-5.365891	adverb
-5.365891	adverbial
-5.365891	adverbs
-5.365891	adversarial
-5.365891	adversaries
-5.365891	adversary
-5.365891	adverse
-5.365891	adversely
-5.365891	adversity
-5.365891	advertise
-5.365891	advertised
-5.365891	advertisement
-5.365891	advertisements
-5.365891	advertiser
-5.365891	advertisers
-5.365891	advertises
-5.365891	advertising
-5.365891	advertorial
-5.365891	advertorials
-5.365891	advest
-5.365891	advice
-5.365891	advil
-5.365891	advisability
-5.365891	advisable
-5.365891	advise
-5.365891	advised
-5.365891	advisedly
-5.365891	advisement
-5.365891	adviser
-5.365891	advisers
-5.365891	advises
-5.365891	advising
-5.365891	advisor
-5.365891	advisories
-5.365891	advisors
-5.365891	advisory
-5.365891	advo
-5.365891	advocacy
-5.365891	advocate
-5.365891	advocated
-5.365891	advocates
-5.365891	advocating
-5.365891	advocation
-5.365891	adweek
-5.365891	adwell
-5.365891	ady
-5.365891	adz
-5.365891	ae
-5.365891	aegean
-5.365891	aegerter
-5.365891	aegis
-5.365891	aegon
-5.365891	aeltus
-5.365891	aeneas
-5.365891	aeneid
-5.365891	aequitron
-5.365891	aer
-5.365891	aerial
-5.365891	aerials
-5.365891	aerie
-5.365891	aerien
-5.365891	aeriens
-5.365891	aeritalia
-5.365891	aero
-5.365891	aerobatic
-5.365891	aerobatics
-5.365891	aerobic
-5.365891	aerobically
-5.365891	aerobics
-5.365891	aerodrome
-5.365891	aerodromes
-5.365891	aerodynamic
-5.365891	aerodynamically
-5.365891	aerodynamicist
-5.365891	aerodynamicists
-5.365891	aerodynamics
-5.365891	aerodyne
-5.365891	aeroflot
-5.365891	aerogenosa
-5.365891	aerojet
-5.365891	aerojets
-5.365891	aerolift
-5.365891	aerolifts
-5.365891	aerolineas
-5.365891	aeromar
-5.365891	aeromexico
-5.365891	aeronautic
-5.365891	aeronautical
-5.365891	aeronauticas
-5.365891	aeronautics
-5.365891	aeroperu
-5.365891	aeroquip
-5.365891	aerosmith
-5.365891	aerosol
-5.365891	aerosols
-5.365891	aerospace
-5.365891	aerospatiale
-5.365891	aerostar
-5.365891	aerostars
-5.365891	aerostat
-5.365891	aerostats
-5.365891	aerotech
-5.365891	aerovias
-5.365891	aerts
-5.365891	aeschelus
-5.365891	aeschliman
-5.365891	aesop
-5.365891	aesthenopia
-5.365891	aesthete
-5.365891	aesthetes
-5.365891	aesthetic
-5.365891	aesthetically
-5.365891	aesthetics
-5.365891	aetna
-5.365891	afanasyev
-5.365891	afar
-5.365891	affable
-5.365891	affably
-5.365891	affair
-5.365891	affairs
-5.365891	affect
-5.365891	affectation
-5.365891	affected
-5.365891	affecting
-5.365891	affection
-5.365891	affectionate
-5.365891	affectionately
-5.365891	affections
-5.365891	affective
-5.365891	affectively
-5.365891	affects
-5.365891	affeldt
-5.365891	afferent
-5.365891	affiant
-5.365891	affidavit
-5.365891	affidavits
-5.365891	affiliate
-5.365891	affiliated
-5.365891	affiliates
-5.365891	affiliating
-5.365891	affiliation
-5.365891	affiliations
-5.365891	affine
-5.365891	affined
-5.365891	affines
-5.365891	affining
-5.365891	affinities
-5.365891	affinity
-5.365891	affirm
-5.365891	affirmation
-5.365891	affirmations
-5.365891	affirmative
-5.365891	affirmatively
-5.365891	affirmed
-5.365891	affirming
-5.365891	affirms
-5.365891	affix
-5.365891	affixed
-5.365891	affixes
-5.365891	affixing
-5.365891	affleck
-5.365891	afflerbach
-5.365891	afflict
-5.365891	afflicted
-5.365891	afflicting
-5.365891	affliction
-5.365891	afflictions
-5.365891	afflicts
-5.365891	afflik
-5.365891	affluence
-5.365891	affluent
-5.365891	affolter
-5.365891	afford
-5.365891	affordability
-5.365891	affordable
-5.365891	affordably
-5.365891	afforded
-5.365891	affording
-5.365891	affords
-5.365891	affricate
-5.365891	affricates
-5.365891	affrication
-5.365891	affront
-5.365891	affronted
-5.365891	affronting
-5.365891	affronts
-5.365891	affymax
-5.365891	afghan
-5.365891	afghani
-5.365891	afghanis
-5.365891	afghanistan
-5.365891	afghanistans
-5.365891	afghans
-5.365891	afheldt
-5.365891	aficionado
-5.365891	aficionados
-5.365891	afield
-5.365891	afire
-5.365891	aflame
-5.365891	aflatoxin
-5.365891	afloat
-5.365891	aflutter
-5.365891	afmed
-5.365891	afonso
-5.365891	afoot
-5.365891	aforementioned
-5.365891	aforesaid
-5.365891	aforethought
-5.365891	afoul
-5.365891	afraid
-5.365891	afresh
-5.365891	africa
-5.365891	african
-5.365891	africanist
-5.365891	africanize
-5.365891	africanized
-5.365891	africans
-5.365891	afridi
-5.365891	afrikaans
-5.365891	afrikaner
-5.365891	afrikanerdom
-5.365891	afrikaners
-5.365891	afro
-5.365891	afroamerican
-5.365891	afroamericans
-5.365891	afrocentric
-5.365891	afsane
-5.365891	afshar
-5.365891	aft
-5.365891	after
-5.365891	afterall
-5.365891	afterburner
-5.365891	afterburners
-5.365891	aftereffect
-5.365891	aftereffects
-5.365891	afterglow
-5.365891	afterglows
-5.365891	afterhours
-5.365891	afterimage
-5.365891	afterimages
-5.365891	afterlife
-5.365891	afterlives
-5.365891	aftermarket
-5.365891	aftermarkets
-5.365891	aftermath
-5.365891	aftermaths
-5.365891	afternoon
-5.365891	afternoons
-5.365891	aftershave
-5.365891	aftershaves
-5.365891	aftershock
-5.365891	aftershocks
-5.365891	aftertaste
-5.365891	aftertastes
-5.365891	aftertax
-5.365891	afterthought
-5.365891	afterthoughts
-5.365891	afterward
-5.365891	afterwards
-5.365891	afula
-5.365891	ag
-5.365891	aga
-5.365891	agache
-5.365891	agaches
-5.365891	again
-5.365891	against
-5.365891	agamemnon
-5.365891	agan
-5.365891	agana
-5.365891	aganbegyan
-5.365891	agans
-5.365891	agape
-5.365891	agar
-5.365891	agard
-5.365891	agarwal
-5.365891	agasp
-5.365891	agassi
-5.365891	agassiz
-5.365891	agate
-5.365891	agates
-5.365891	agatha
-5.365891	agawam
-5.365891	agco
-5.365891	age
-5.365891	aged
-5.365891	agee
-5.365891	ageless
-5.365891	agematsu
-5.365891	agence
-5.365891	agencies
-5.365891	agency
-5.365891	agenda
-5.365891	agendas
-5.365891	agent
-5.365891	agents
-5.365891	ager
-5.365891	ageratum
-5.365891	ageratums
-5.365891	agers
-5.365891	agerton
-5.365891	ages
-5.365891	agfa
-5.365891	aggarwal
-5.365891	aggie
-5.365891	aggies
-5.365891	agglomerate
-5.365891	agglomeration
-5.365891	agglutinate
-5.365891	aggrandize
-5.365891	aggrandizement
-5.365891	aggrandizing
-5.365891	aggravate
-5.365891	aggravated
-5.365891	aggravates
-5.365891	aggravating
-5.365891	aggravation
-5.365891	aggregate
-5.365891	aggregated
-5.365891	aggregates
-5.365891	aggress
-5.365891	aggression
-5.365891	aggressions
-5.365891	aggressive
-5.365891	aggressively
-5.365891	aggressiveness
-5.365891	aggressivity
-5.365891	aggressor
-5.365891	aggressors
-5.365891	aggrey
-5.365891	aggrieve
-5.365891	aggrieved
-5.365891	aggy
-5.365891	aghast
-5.365891	aghazadeh
-5.365891	agie
-5.365891	agildo
-5.365891	agile
-5.365891	agilis
-5.365891	agility
-5.365891	agin
-5.365891	agincourt
-5.365891	aging
-5.365891	agins
-5.365891	agip
-5.365891	agitate
-5.365891	agitated
-5.365891	agitating
-5.365891	agitation
-5.365891	agitator
-5.365891	agitators
-5.365891	agitprop
-5.365891	agius
-5.365891	agleam
-5.365891	agler
-5.365891	aglitter
-5.365891	aglo
-5.365891	aglow
-5.365891	agna
-5.365891	agne
-5.365891	agnella
-5.365891	agnelli
-5.365891	agnellis
-5.365891	agnello
-5.365891	agner
-5.365891	agnes
-5.365891	agneta
-5.365891	agnew
-5.365891	agnico
-5.365891	agnor
-5.365891	agnos
-5.365891	agnosio
-5.365891	agnostic
-5.365891	agnostics
-5.365891	ago
-5.365891	agog
-5.365891	agoglia
-5.365891	agonies
-5.365891	agonist
-5.365891	agonists
-5.365891	agonize
-5.365891	agonized
-5.365891	agonizes
-5.365891	agonizing
-5.365891	agonizingly
-5.365891	agony
-5.365891	agora
-5.365891	agoraphobia
-5.365891	agosta
-5.365891	agostinelli
-5.365891	agostini
-5.365891	agostino
-5.365891	agosto
-5.365891	agoura
-5.365891	agouron
-5.365891	agra
-5.365891	agrarian
-5.365891	agrarianism
-5.365891	agrawal
-5.365891	agree
-5.365891	agreeable
-5.365891	agreed
-5.365891	agreeing
-5.365891	agreement
-5.365891	agreements
-5.365891	agrees
-5.365891	agregable
-5.365891	agregious
-5.365891	agresource
-5.365891	agresta
-5.365891	agresti
-5.365891	agrexco
-5.365891	agri
-5.365891	agribank
-5.365891	agribusiness
-5.365891	agrico
-5.365891	agricola
-5.365891	agricole
-5.365891	agricultural
-5.365891	agriculturalist
-5.365891	agriculturally
-5.365891	agriculture
-5.365891	agrifuel
-5.365891	agrifuels
-5.365891	agrigenetics
-5.365891	agrippa
-5.365891	agrivisor
-5.365891	agro
-5.365891	agrochemical
-5.365891	agrochemicals
-5.365891	agroindustrial
-5.365891	agrokomerc
-5.365891	agronomist
-5.365891	agronomists
-5.365891	agrosiand
-5.365891	aground
-5.365891	agrusa
-5.365891	agua
-5.365891	aguacate
-5.365891	aguadilla
-5.365891	aguado
-5.365891	aguanga
-5.365891	aguascalientes
-5.365891	aguayo
-5.365891	agudelo
-5.365891	aguero
-5.365891	aguiar
-5.365891	aguila
-5.365891	aguilar
-5.365891	aguilera
-5.365891	aguillar
-5.365891	aguillard
-5.365891	aguillon
-5.365891	aguilo
-5.365891	aguinaga
-5.365891	aguirra
-5.365891	aguirre
-5.365891	agustin
-5.365891	ah
-5.365891	aha
-5.365891	ahab
-5.365891	ahah
-5.365891	aharon
-5.365891	ahart
-5.365891	ahasuerus
-5.365891	ahaulsie
-5.365891	ahead
-5.365891	ahearn
-5.365891	aherin
-5.365891	ahern
-5.365891	aherne
-5.365891	ahh
-5.365891	ahl
-5.365891	ahlberg
-5.365891	ahlborn
-5.365891	ahlen
-5.365891	ahlers
-5.365891	ahles
-5.365891	ahlf
-5.365891	ahlgren
-5.365891	ahlgrim
-5.365891	ahlin
-5.365891	ahlman
-5.365891	ahlquist
-5.365891	ahlquists
-5.365891	ahlstrand
-5.365891	ahlstrom
-5.365891	ahluwalia
-5.365891	ahmad
-5.365891	ahmadi
-5.365891	ahmann
-5.365891	ahmanson
-5.365891	ahmansons
-5.365891	ahmed
-5.365891	ahmeek
-5.365891	ahmoudi
-5.365891	ahn
-5.365891	ahnell
-5.365891	ahner
-5.365891	aho
-5.365891	ahola
-5.365891	ahold
-5.365891	aholds
-5.365891	ahonen
-5.365891	ahoskie
-5.365891	ahoy
-5.365891	ahr
-5.365891	ahranat
-5.365891	ahren
-5.365891	ahrendt
-5.365891	ahrens
-5.365891	ahs
-5.365891	ahsahka
-5.365891	ahuja
-5.365891	ahumada
-5.365891	ahwahnee
-5.365891	ai
-5.365891	aichele
-5.365891	aicher
-5.365891	aichi
-5.365891	aickin
-5.365891	aid
-5.365891	aida
-5.365891	aidan
-5.365891	aide
-5.365891	aided
-5.365891	aides
-5.365891	aidid
-5.365891	aiding
-5.365891	aids
-5.365891	aiello
-5.365891	aiesha
-5.365891	aigner
-5.365891	aiguebelle
-5.365891	aiken
-5.365891	aikens
-5.365891	aikey
-5.365891	aikin
-5.365891	aikins
-5.365891	aikman
-5.365891	aikoff
-5.365891	ail
-5.365891	ailee
-5.365891	aileen
-5.365891	aileron
-5.365891	ailerons
-5.365891	ailes
-5.365891	ailey
-5.365891	ailing
-5.365891	ailment
-5.365891	ailments
-5.365891	ailor
-5.365891	ails
-5.365891	ailsa
-5.365891	ailurophile
-5.365891	aim
-5.365891	aimal
-5.365891	aiman
-5.365891	aime
-5.365891	aimed
-5.365891	aimee
-5.365891	aimetti
-5.365891	aiming
-5.365891	aimless
-5.365891	aimlessly
-5.365891	aimone
-5.365891	aims
-5.365891	aine
-5.365891	ainge
-5.365891	ainley
-5.365891	ainsberg
-5.365891	ainsley
-5.365891	ainslie
-5.365891	ainsworth
-5.365891	aipac
-5.365891	air
-5.365891	air_force
-5.365891	airbag
-5.365891	airbags
-5.365891	airbase
-5.365891	airbases
-5.365891	airboat
-5.365891	airboats
-5.365891	airborne
-5.365891	airbus
-5.365891	aircal
-5.365891	airco
-5.365891	aircoa
-5.365891	aircondition
-5.365891	airconditioned
-5.365891	airconditioner
-5.365891	airconditioning
-5.365891	airconditions
-5.365891	aircraft
-5.365891	aircrafts
-5.365891	aircrew
-5.365891	aird
-5.365891	airdrop
-5.365891	airdrops
-5.365891	aired
-5.365891	airedale
-5.365891	airedales
-5.365891	aires
-5.365891	airey
-5.365891	airfare
-5.365891	airfares
-5.365891	airfield
-5.365891	airfields
-5.365891	airflow
-5.365891	airflows
-5.365891	airfoil
-5.365891	airfoils
-5.365891	airfone
-5.365891	airfones
-5.365891	airforce
-5.365891	airforces
-5.365891	airframe
-5.365891	airframes
-5.365891	airfreight
-5.365891	airgas
-5.365891	airglow
-5.365891	airhart
-5.365891	airhead
-5.365891	airheadz
-5.365891	airing
-5.365891	airington
-5.365891	airless
-5.365891	airlia
-5.365891	airlie
-5.365891	airlift
-5.365891	airlifted
-5.365891	airlifter
-5.365891	airlifters
-5.365891	airlifting
-5.365891	airlifts
-5.365891	airline
-5.365891	airliner
-5.365891	airliners
-5.365891	airlines
-5.365891	airlink
-5.365891	airlinks
-5.365891	airlock
-5.365891	airlocks
-5.365891	airmail
-5.365891	airman
-5.365891	airmen
-5.365891	airmotive
-5.365891	airplane
-5.365891	airplanes
-5.365891	airport
-5.365891	airporter
-5.365891	airporters
-5.365891	airports
-5.365891	airpower
-5.365891	airs
-5.365891	airshare
-5.365891	airship
-5.365891	airships
-5.365891	airspace
-5.365891	airspaces
-5.365891	airspeed
-5.365891	airstrike
-5.365891	airstrikes
-5.365891	airstrip
-5.365891	airstrips
-5.365891	airtight
-5.365891	airtime
-5.365891	airtouch
-5.365891	airtran
-5.365891	airwave
-5.365891	airwaves
-5.365891	airway
-5.365891	airways
-5.365891	airwing
-5.365891	airwings
-5.365891	airworthiness
-5.365891	airworthy
-5.365891	airy
-5.365891	ais
-5.365891	aisa
-5.365891	aisle
-5.365891	aisles
-5.365891	aisling
-5.365891	aislinn
-5.365891	aist
-5.365891	aitchison
-5.365891	aithne
-5.365891	aitken
-5.365891	aiton
-5.365891	aiwa
-5.365891	aix
-5.365891	aix-en-provence
-5.365891	aix-la-chapelle
-5.365891	aja
-5.365891	ajaj
-5.365891	ajami
-5.365891	ajar
-5.365891	ajax
-5.365891	ajay
-5.365891	ajinomoto
-5.365891	ajito
-5.365891	aka
-5.365891	akai
-5.365891	akaka
-5.365891	akali
-5.365891	akamine
-5.365891	akana
-5.365891	akao
-5.365891	akard
-5.365891	akashi
-5.365891	akbar
-5.365891	akbash
-5.365891	akc
-5.365891	ake
-5.365891	akebono
-5.365891	akel
-5.365891	akella
-5.365891	aken
-5.365891	akens
-5.365891	aker
-5.365891	akerley
-5.365891	akerman
-5.365891	akers
-5.365891	akerson
-5.365891	akey
-5.365891	akhtar
-5.365891	aki
-5.365891	akiba
-5.365891	akihito
-5.365891	akiko
-5.365891	akimbo
-5.365891	akin
-5.365891	akins
-5.365891	akio
-5.365891	akira
-5.365891	akita
-5.365891	akiva
-5.365891	akiyama
-5.365891	akkadian
-5.365891	akkerman
-5.365891	akre
-5.365891	akridge
-5.365891	akron
-5.365891	aksamit
-5.365891	aksler
-5.365891	akst
-5.365891	akyanama
-5.365891	akzo
-5.365891	akzos
-5.365891	al
-5.365891	ala
-5.365891	alabama
-5.365891	alabaman
-5.365891	alabamans
-5.365891	alabaster
-5.365891	alachlor
-5.365891	alachua
-5.365891	alacrity
-5.365891	aladdin
-5.365891	alafi
-5.365891	alagappan
-5.365891	alagem
-5.365891	alagna
-5.365891	alagoas
-5.365891	alai
-5.365891	alaimo
-5.365891	alain
-5.365891	alaine
-5.365891	alair
-5.365891	alam
-5.365891	alamance
-5.365891	alamco
-5.365891	alameda
-5.365891	alamein
-5.365891	alamillo
-5.365891	alamito
-5.365891	alamitos
-5.365891	alamo
-5.365891	alamodome
-5.365891	alamos
-5.365891	alamosa
-5.365891	alamoud
-5.365891	alamoudi
-5.365891	alan
-5.365891	alana
-5.365891	alanco
-5.365891	aland
-5.365891	alane
-5.365891	alanis
-5.365891	alaniz
-5.365891	alann
-5.365891	alanna
-5.365891	alar
-5.365891	alarcon
-5.365891	alard
-5.365891	alaric
-5.365891	alarica
-5.365891	alarice
-5.365891	alarid
-5.365891	alarie
-5.365891	alarm
-5.365891	alarmed
-5.365891	alarming
-5.365891	alarmingly
-5.365891	alarmist
-5.365891	alarmists
-5.365891	alarms
-5.365891	alaron
-5.365891	alas
-5.365891	alaska
-5.365891	alaskamen
-5.365891	alaskan
-5.365891	alaskans
-5.365891	alastair
-5.365891	alaster
-5.365891	alatas
-5.365891	alatorre
-5.365891	alayne
-5.365891	alba
-5.365891	albach
-5.365891	albacore
-5.365891	alban
-5.365891	albanese
-5.365891	albani
-5.365891	albania
-5.365891	albanian
-5.365891	albanians
-5.365891	albank
-5.365891	albano
-5.365891	albans
-5.365891	albany
-5.365891	albarado
-5.365891	albarran
-5.365891	albashaun
-5.365891	albatross
-5.365891	albatrosses
-5.365891	albaugh
-5.365891	albea
-5.365891	albee
-5.365891	albeit
-5.365891	albemarle
-5.365891	alben
-5.365891	albendazole
-5.365891	alber
-5.365891	alberding
-5.365891	alberg
-5.365891	albergo
-5.365891	alberico
-5.365891	albern
-5.365891	albers
-5.365891	alberson
-5.365891	albert
-5.365891	alberta
-5.365891	alberthal
-5.365891	alberti
-5.365891	albertina
-5.365891	albertine
-5.365891	albertini
-5.365891	alberto
-5.365891	alberts
-5.365891	albertsen
-5.365891	albertson
-5.365891	albertus
-5.365891	albertville
-5.365891	alberty
-5.365891	albie
-5.365891	albin
-5.365891	albina
-5.365891	albini
-5.365891	albinia
-5.365891	albino
-5.365891	albion
-5.365891	albiric
-5.365891	albo
-5.365891	albrecht
-5.365891	albright
-5.365891	albrightsville
-5.365891	albritton
-5.365891	albro
-5.365891	albukhari
-5.365891	album
-5.365891	albumin
-5.365891	albums
-5.365891	albunex
-5.365891	albuquerque
-5.365891	albury
-5.365891	albus
-5.365891	albuterol
-5.365891	alcala
-5.365891	alcan
-5.365891	alcantar
-5.365891	alcantara
-5.365891	alcaraz
-5.365891	alcasa
-5.365891	alcatel
-5.365891	alcatraz
-5.365891	alcazar
-5.365891	alcee
-5.365891	alcester
-5.365891	alchemically
-5.365891	alchemist
-5.365891	alchemy
-5.365891	alcide
-5.365891	alcids
-5.365891	alcina
-5.365891	alco
-5.365891	alcoa
-5.365891	alcocer
-5.365891	alcock
-5.365891	alcohol
-5.365891	alcoholic
-5.365891	alcoholics
-5.365891	alcoholism
-5.365891	alcon
-5.365891	alcorn
-5.365891	alcorta
-5.365891	alcott
-5.365891	alcove
-5.365891	alcoves
-5.365891	alda
-5.365891	aldaco
-5.365891	aldama
-5.365891	aldana
-5.365891	aldape
-5.365891	alday
-5.365891	aldebaran
-5.365891	alden
-5.365891	aldenville
-5.365891	alder
-5.365891	aldercy
-5.365891	alderete
-5.365891	alderfer
-5.365891	alderidge
-5.365891	alderman
-5.365891	aldermen
-5.365891	alderson
-5.365891	alderton
-5.365891	aldi
-5.365891	aldicarb
-5.365891	aldila
-5.365891	aldin
-5.365891	aldinger
-5.365891	aldis
-5.365891	aldo
-5.365891	aldora
-5.365891	aldous
-5.365891	aldred
-5.365891	aldredge
-5.365891	aldrete
-5.365891	aldric
-5.365891	aldrich
-5.365891	aldridge
-5.365891	aldrin
-5.365891	aldus
-5.365891	aldwin
-5.365891	aldwyn
-5.365891	aldys
-5.365891	ale
-5.365891	aleatory
-5.365891	alec
-5.365891	aleda
-5.365891	aledo
-5.365891	aleen
-5.365891	alegre
-5.365891	alegrett
-5.365891	alegria
-5.365891	alehouse
-5.365891	aleichem
-5.365891	alejandre
-5.365891	alejandro
-5.365891	alejo
-5.365891	alejos
-5.365891	aleksander
-5.365891	aleksandr
-5.365891	alem
-5.365891	aleman
-5.365891	alena
-5.365891	alendrin
-5.365891	alene
-5.365891	alenia
-5.365891	aleo
-5.365891	aleph
-5.365891	aleria
-5.365891	aleron
-5.365891	alert
-5.365891	alerted
-5.365891	alerting
-5.365891	alertly
-5.365891	alertness
-5.365891	alerts
-5.365891	ales
-5.365891	aleshire
-5.365891	alesi
-5.365891	alessandra
-5.365891	alessandrini
-5.365891	alessandro
-5.365891	alessi
-5.365891	alessio
-5.365891	aleta
-5.365891	aletha
-5.365891	alethea
-5.365891	aletti
-5.365891	aleutian
-5.365891	aleutians
-5.365891	aleve
-5.365891	alewife
-5.365891	alewine
-5.365891	alewives
-5.365891	alex
-5.365891	alexa
-5.365891	alexander
-5.365891	alexanders
-5.365891	alexandra
-5.365891	alexandre
-5.365891	alexandria
-5.365891	alexandrine
-5.365891	alexandrines
-5.365891	alexandrov
-5.365891	alexei
-5.365891	alexi
-5.365891	alexia
-5.365891	alexine
-5.365891	alexis
-5.365891	alexopoulos
-5.365891	alexs
-5.365891	alexy
-5.365891	aley
-5.365891	alf
-5.365891	alfa
-5.365891	alfalfa
-5.365891	alfano
-5.365891	alfareda
-5.365891	alfaro
-5.365891	alfavilli
-5.365891	alfie
-5.365891	alfieri
-5.365891	alfiero
-5.365891	alfin
-5.365891	alfono
-5.365891	alfons
-5.365891	alfonse
-5.365891	alfonsin
-5.365891	alfonsine
-5.365891	alfonso
-5.365891	alfonzo
-5.365891	alford
-5.365891	alfre
-5.365891	alfred
-5.365891	alfredo
-5.365891	alfredson
-5.365891	alfredsson
-5.365891	alfrey
-5.365891	algae
-5.365891	algal
-5.365891	algamaa
-5.365891	algar
-5.365891	algarin
-5.365891	algata
-5.365891	algebra
-5.365891	algebraic
-5.365891	algebraically
-5.365891	algemene
-5.365891	algeo
-5.365891	alger
-5.365891	algeria
-5.365891	algerian
-5.365891	algerians
-5.365891	algernon
-5.365891	algie
-5.365891	algiers
-5.365891	algodones
-5.365891	algol
-5.365891	algom
-5.365891	algoma
-5.365891	algonquian
-5.365891	algonquin
-5.365891	algorithm
-5.365891	algorithms
-5.365891	alguire
-5.365891	algy
-5.365891	alhadeff
-5.365891	alhambra
-5.365891	alhausie
-5.365891	ali
-5.365891	ali-reza
-5.365891	aliano
-5.365891	alianza
-5.365891	alias
-5.365891	aliases
-5.365891	aliberti
-5.365891	alibi
-5.365891	alibis
-5.365891	alibrandi
-5.365891	alice
-5.365891	alicea
-5.365891	alices
-5.365891	alicia
-5.365891	alida
-5.365891	alie
-5.365891	alien
-5.365891	alienate
-5.365891	alienated
-5.365891	alienates
-5.365891	alienating
-5.365891	alienation
-5.365891	aliens
-5.365891	aliff
-5.365891	alig
-5.365891	alight
-5.365891	align
-5.365891	aligned
-5.365891	aligning
-5.365891	alignment
-5.365891	alignments
-5.365891	aligns
-5.365891	alihan
-5.365891	alija
-5.365891	alike
-5.365891	alikes
-5.365891	alima
-5.365891	alimenies
-5.365891	alimentary
-5.365891	alimony
-5.365891	alina
-5.365891	aline
-5.365891	alines
-5.365891	alioto
-5.365891	aliquippa
-5.365891	aliquippas
-5.365891	alire
-5.365891	alirio
-5.365891	alisa
-5.365891	alisha
-5.365891	alisky
-5.365891	alislamiyya
-5.365891	alison
-5.365891	alissa
-5.365891	alistair
-5.365891	alister
-5.365891	alita
-5.365891	alitalia
-5.365891	alithia
-5.365891	alito
-5.365891	alive
-5.365891	alix
-5.365891	aliyah
-5.365891	alizac
-5.365891	alka
-5.365891	alkahest
-5.365891	alkali
-5.365891	alkalies
-5.365891	alkaline
-5.365891	alkalinity
-5.365891	alkaloid
-5.365891	alkaloidal
-5.365891	alkaloids
-5.365891	alkanes
-5.365891	alkema
-5.365891	alkene
-5.365891	alkenes
-5.365891	alkermes
-5.365891	alkire
-5.365891	all
-5.365891	all-out
-5.365891	all-purpose
-5.365891	alla
-5.365891	allah
-5.365891	allain
-5.365891	allaire
-5.365891	allais
-5.365891	allamuchy
-5.365891	allan
-5.365891	allante
-5.365891	allar
-5.365891	allard
-5.365891	allardt
-5.365891	allay
-5.365891	allayed
-5.365891	allaying
-5.365891	allays
-5.365891	allbaugh
-5.365891	allbee
-5.365891	allbright
-5.365891	allbritten
-5.365891	allbritton
-5.365891	allcock
-5.365891	allcorn
-5.365891	allday
-5.365891	allderdice
-5.365891	alldredge
-5.365891	allebach
-5.365891	alleco
-5.365891	allee
-5.365891	allegation
-5.365891	allegations
-5.365891	allege
-5.365891	alleged
-5.365891	allegedly
-5.365891	alleges
-5.365891	alleghany
-5.365891	alleghenies
-5.365891	allegheny
-5.365891	allegiance
-5.365891	allegiances
-5.365891	alleging
-5.365891	allegis
-5.365891	allegorical
-5.365891	allegories
-5.365891	allegory
-5.365891	allegra
-5.365891	allegretti
-5.365891	allegro
-5.365891	allele
-5.365891	alleles
-5.365891	allelic
-5.365891	alleman
-5.365891	allemand
-5.365891	allen
-5.365891	allenbaugh
-5.365891	allendale
-5.365891	allende
-5.365891	allender
-5.365891	allendorf
-5.365891	allene
-5.365891	allenhurst
-5.365891	allens
-5.365891	allensbach
-5.365891	allensworth
-5.365891	allenton
-5.365891	allentown
-5.365891	allenwood
-5.365891	aller
-5.365891	allergan
-5.365891	allergen
-5.365891	allergens
-5.365891	allergic
-5.365891	allergies
-5.365891	allergist
-5.365891	allergists
-5.365891	allergy
-5.365891	allers
-5.365891	allert
-5.365891	allerton
-5.365891	alles
-5.365891	alleva
-5.365891	alleviate
-5.365891	alleviated
-5.365891	alleviates
-5.365891	alleviating
-5.365891	alleviation
-5.365891	alley
-5.365891	alleyne
-5.365891	alleyoop
-5.365891	alleys
-5.365891	alleyway
-5.365891	alleyways
-5.365891	allgaier
-5.365891	allgeier
-5.365891	allgemeine
-5.365891	allgemeines
-5.365891	allgeyer
-5.365891	allgood
-5.365891	alli
-5.365891	alliance
-5.365891	alliances
-5.365891	alliant
-5.365891	allianz
-5.365891	allick
-5.365891	allie
-5.365891	allied
-5.365891	alliedsignal
-5.365891	allies
-5.365891	alligator
-5.365891	alligators
-5.365891	alligood
-5.365891	allin
-5.365891	allinder
-5.365891	alling
-5.365891	allinger
-5.365891	allingham
-5.365891	allington
-5.365891	allinson
-5.365891	allis
-5.365891	allison
-5.365891	allister
-5.365891	alliston
-5.365891	alliteration
-5.365891	alliterative
-5.365891	allman
-5.365891	allmendinger
-5.365891	allmon
-5.365891	allmond
-5.365891	allnet
-5.365891	allnutt
-5.365891	allocate
-5.365891	allocated
-5.365891	allocates
-5.365891	allocating
-5.365891	allocation
-5.365891	allocations
-5.365891	allocator
-5.365891	allocators
-5.365891	allocca
-5.365891	allocco
-5.365891	allograph
-5.365891	allographs
-5.365891	allomorph
-5.365891	allomorphs
-5.365891	allophone
-5.365891	allophones
-5.365891	allophonic
-5.365891	allor
-5.365891	allot
-5.365891	alloted
-5.365891	allotment
-5.365891	allotments
-5.365891	allotrope
-5.365891	allotropes
-5.365891	allots
-5.365891	allotted
-5.365891	allotting
-5.365891	allow
-5.365891	allowable
-5.365891	allowance
-5.365891	allowances
-5.365891	alloway
-5.365891	allowed
-5.365891	allowing
-5.365891	allows
-5.365891	alloy
-5.365891	alloys
-5.365891	allphin
-5.365891	allport
-5.365891	allred
-5.365891	allright
-5.365891	alls
-5.365891	allsbrook
-5.365891	allset
-5.365891	allshouse
-5.365891	allsop
-5.365891	allsopp
-5.365891	allspice
-5.365891	allstate
-5.365891	allston
-5.365891	allsup
-5.365891	alltel
-5.365891	alltime
-5.365891	allton
-5.365891	alltop
-5.365891	allude
-5.365891	alluded
-5.365891	alludes
-5.365891	alluding
-5.365891	allum
-5.365891	allums
-5.365891	allure
-5.365891	allured
-5.365891	alluring
-5.365891	allusion
-5.365891	allusions
-5.365891	allusive
-5.365891	alluvial
-5.365891	alluvium
-5.365891	allwaste
-5.365891	allweiss
-5.365891	ally
-5.365891	allying
-5.365891	allyn
-5.365891	allys
-5.365891	allyson
-5.365891	alm
-5.365891	alma
-5.365891	almada
-5.365891	almadani
-5.365891	almaden
-5.365891	almaguer
-5.365891	almal
-5.365891	alman
-5.365891	almanac
-5.365891	almand
-5.365891	almanza
-5.365891	almanzar
-5.365891	almaraz
-5.365891	almas
-5.365891	almasy
-5.365891	almay
-5.365891	almazan
-5.365891	almeda
-5.365891	almeida
-5.365891	almelund
-5.365891	almendarez
-5.365891	almer
-5.365891	almeria
-5.365891	almgren
-5.365891	almighty
-5.365891	almira
-5.365891	almo
-5.365891	almodovar
-5.365891	almon
-5.365891	almond
-5.365891	almonds
-5.365891	almoner
-5.365891	almonte
-5.365891	almos
-5.365891	almost
-5.365891	almquist
-5.365891	alms
-5.365891	almy
-5.365891	almys
-5.365891	alodie
-5.365891	aloe
-5.365891	aloft
-5.365891	aloha
-5.365891	aloi
-5.365891	aloia
-5.365891	alois
-5.365891	aloisa
-5.365891	aloisi
-5.365891	aloisia
-5.365891	aloisio
-5.365891	aloka
-5.365891	alomar
-5.365891	alon
-5.365891	alone
-5.365891	along
-5.365891	alonge
-5.365891	alongi
-5.365891	alongs
-5.365891	alongside
-5.365891	aloni
-5.365891	alonso
-5.365891	alonza
-5.365891	alonzo
-5.365891	aloof
-5.365891	aloofness
-5.365891	alot
-5.365891	aloud
-5.365891	aloys
-5.365891	aloyse
-5.365891	aloysia
-5.365891	aloysius
-5.365891	alpa
-5.365891	alpaca
-5.365891	alpaugh
-5.365891	alper
-5.365891	alperin
-5.365891	alpern
-5.365891	alpers
-5.365891	alpert
-5.365891	alpex
-5.365891	alpha
-5.365891	alphabet
-5.365891	alphabetic
-5.365891	alphabetical
-5.365891	alphabetically
-5.365891	alphabetization
-5.365891	alphabetize
-5.365891	alphabetized
-5.365891	alphabetizes
-5.365891	alphabetizing
-5.365891	alphagraphics
-5.365891	alphametric
-5.365891	alphametrics
-5.365891	alphandery
-5.365891	alphanumeric
-5.365891	alphaphotographic
-5.365891	alpharel
-5.365891	alpharetta
-5.365891	alphin
-5.365891	alphonse
-5.365891	alphonsine
-5.365891	alphonso
-5.365891	alpin
-5.365891	alpine
-5.365891	alpirez
-5.365891	alpo
-5.365891	alps
-5.365891	alquist
-5.365891	alread
-5.365891	already
-5.365891	alred
-5.365891	alright
-5.365891	alrosa
-5.365891	alroy
-5.365891	als
-5.365891	alsace
-5.365891	alsatian
-5.365891	alsbrook
-5.365891	alsbrooks
-5.365891	alsbury
-5.365891	alsdorf
-5.365891	alsgaard
-5.365891	alshelhah
-5.365891	alsip
-5.365891	also
-5.365891	alsobrook
-5.365891	alsobrooks
-5.365891	alsop
-5.365891	alspach
-5.365891	alspaugh
-5.365891	alsthom
-5.365891	alston
-5.365891	alsup
-5.365891	alt
-5.365891	alta
-5.365891	altadena
-5.365891	altai
-5.365891	altaic
-5.365891	altair
-5.365891	altamira
-5.365891	altamirano
-5.365891	altamont
-5.365891	altamuro
-5.365891	altar
-5.365891	altarpiece
-5.365891	altars
-5.365891	altavista
-5.365891	altay
-5.365891	altemose
-5.365891	altemus
-5.365891	altenburg
-5.365891	altenhofen
-5.365891	alteon
-5.365891	alter
-5.365891	altera
-5.365891	alteration
-5.365891	alterations
-5.365891	altercation
-5.365891	altercations
-5.365891	altered
-5.365891	altergott
-5.365891	altering
-5.365891	alterman
-5.365891	alternacare
-5.365891	alternate
-5.365891	alternated
-5.365891	alternately
-5.365891	alternates
-5.365891	alternating
-5.365891	alternation
-5.365891	alternative
-5.365891	alternatively
-5.365891	alternatives
-5.365891	alternator
-5.365891	alters
-5.365891	altfest
-5.365891	althaus
-5.365891	althaver
-5.365891	althea
-5.365891	altherr
-5.365891	althoff
-5.365891	althorp
-5.365891	although
-5.365891	althouse
-5.365891	altice
-5.365891	altier
-5.365891	altieri
-5.365891	altima
-5.365891	altimeter
-5.365891	altimetry
-5.365891	altimorano
-5.365891	altiplano
-5.365891	altitude
-5.365891	altitudes
-5.365891	altizer
-5.365891	altland
-5.365891	altman
-5.365891	altmann
-5.365891	altmeyer
-5.365891	alto
-5.365891	altobelli
-5.365891	altogether
-5.365891	altoid
-5.365891	altom
-5.365891	altomare
-5.365891	alton
-5.365891	altoona
-5.365891	altos
-5.365891	altra
-5.365891	altron
-5.365891	altruism
-5.365891	altruistic
-5.365891	altschiller
-5.365891	altschul
-5.365891	altschuler
-5.365891	altshuler
-5.365891	altucher
-5.365891	alturas
-5.365891	altus
-5.365891	altvater
-5.365891	altzheimer
-5.365891	alu
-5.365891	alum
-5.365891	alumax
-5.365891	alumbaugh
-5.365891	alumina
-5.365891	aluminio
-5.365891	aluminium
-5.365891	aluminize
-5.365891	aluminized
-5.365891	aluminosilicate
-5.365891	aluminum
-5.365891	alumna
-5.365891	alumni
-5.365891	alumnus
-5.365891	alums
-5.365891	alun
-5.365891	alura
-5.365891	alusuisse
-5.365891	alva
-5.365891	alvah
-5.365891	alvan
-5.365891	alvarado
-5.365891	alvardo
-5.365891	alvare
-5.365891	alvarenga
-5.365891	alvares
-5.365891	alvarez
-5.365891	alvaro
-5.365891	alvear
-5.365891	alveolar
-5.365891	alveoli
-5.365891	alverez
-5.365891	alvero
-5.365891	alverson
-5.365891	alverton
-5.365891	alves
-5.365891	alvey
-5.365891	alvidrez
-5.365891	alvin
-5.365891	alvina
-5.365891	alvino
-5.365891	alvis
-5.365891	alvita
-5.365891	alvite
-5.365891	alvord
-5.365891	alwaleed
-5.365891	alward
-5.365891	always
-5.365891	alwin
-5.365891	alwine
-5.365891	alwood
-5.365891	alwyn
-5.365891	aly
-5.365891	alyce
-5.365891	alyea
-5.365891	alyeska
-5.365891	alys
-5.365891	alysheba
-5.365891	alysia
-5.365891	alyssa
-5.365891	alza
-5.365891	alzado
-5.365891	alzena
-5.365891	alzene
-5.365891	alzheimer
-5.365891	alzona
-5.365891	am
-5.365891	amabel
-5.365891	amabelle
-5.365891	amabile
-5.365891	amacher
-5.365891	amacker
-5.365891	amadea
-5.365891	amadeo
-5.365891	amadeus
-5.365891	amado
-5.365891	amadon
-5.365891	amador
-5.365891	amadou
-5.365891	amagansett
-5.365891	amaker
-5.365891	amakudari
-5.365891	amal
-5.365891	amalea
-5.365891	amalfitano
-5.365891	amalgam
-5.365891	amalgamate
-5.365891	amalgamated
-5.365891	amalgamates
-5.365891	amalgamating
-5.365891	amalgamation
-5.365891	amalgams
-5.365891	amalia
-5.365891	amalie
-5.365891	amalya
-5.365891	aman
-5.365891	amana
-5.365891	amanda
-5.365891	amandas
-5.365891	amandime
-5.365891	amann
-5.365891	amano
-5.365891	amanpour
-5.365891	amante
-5.365891	amar
-5.365891	amara
-5.365891	amaral
-5.365891	amarante
-5.365891	amaranth
-5.365891	amaretto
-5.365891	amargosa
-5.365891	amari
-5.365891	amarilla
-5.365891	amarillo
-5.365891	amarillos
-5.365891	amarin
-5.365891	amaris
-5.365891	amaro
-5.365891	amaryllis
-5.365891	amaryllises
-5.365891	amasa
-5.365891	amason
-5.365891	amass
-5.365891	amassed
-5.365891	amasses
-5.365891	amassing
-5.365891	amateur
-5.365891	amateurish
-5.365891	amateurism
-5.365891	amateurs
-5.365891	amati
-5.365891	amatil
-5.365891	amato
-5.365891	amauligak
-5.365891	amax
-5.365891	amaya
-5.365891	amaze
-5.365891	amazed
-5.365891	amazement
-5.365891	amazes
-5.365891	amazing
-5.365891	amazingly
-5.365891	amazon
-5.365891	amazonia
-5.365891	amazonian
-5.365891	amazonians
-5.365891	amazons
-5.365891	ambac
-5.365891	ambase
-5.365891	ambassador
-5.365891	ambassadorial
-5.365891	ambassadors
-5.365891	ambassadorship
-5.365891	ambassadorships
-5.365891	ambassadress
-5.365891	amber
-5.365891	amberg
-5.365891	amberger
-5.365891	ambergris
-5.365891	ambers
-5.365891	amberson
-5.365891	ambery
-5.365891	ambiance
-5.365891	ambidextrous
-5.365891	ambience
-5.365891	ambient
-5.365891	ambiguities
-5.365891	ambiguity
-5.365891	ambiguous
-5.365891	ambisone
-5.365891	ambition
-5.365891	ambitions
-5.365891	ambitious
-5.365891	ambitiously
-5.365891	ambivalence
-5.365891	ambivalent
-5.365891	amble
-5.365891	ambled
-5.365891	ambler
-5.365891	ambles
-5.365891	amblin
-5.365891	ambling
-5.365891	amborn
-5.365891	amboy
-5.365891	ambra
-5.365891	ambriano
-5.365891	ambrit
-5.365891	ambriz
-5.365891	ambrogio
-5.365891	ambrose
-5.365891	ambrosia
-5.365891	ambrosial
-5.365891	ambrosian
-5.365891	ambrosiano
-5.365891	ambrosine
-5.365891	ambrosini
-5.365891	ambrosino
-5.365891	ambrosio
-5.365891	ambrosius
-5.365891	ambs
-5.365891	ambuehl
-5.365891	ambulance
-5.365891	ambulances
-5.365891	ambulatory
-5.365891	amburgey
-5.365891	amburn
-5.365891	ambush
-5.365891	ambushed
-5.365891	ambushes
-5.365891	ambushing
-5.365891	amc
-5.365891	amca
-5.365891	amcast
-5.365891	amcole
-5.365891	amcor
-5.365891	amcore
-5.365891	amdahl
-5.365891	amdec
-5.365891	amdek
-5.365891	amdur
-5.365891	amdura
-5.365891	ame
-5.365891	ameche
-5.365891	amedco
-5.365891	amedee
-5.365891	ameen
-5.365891	amelia
-5.365891	amelinda
-5.365891	ameline
-5.365891	amelio
-5.365891	ameliorate
-5.365891	ameliorated
-5.365891	amelioration
-5.365891	amelita
-5.365891	amell
-5.365891	amen
-5.365891	amenable
-5.365891	amenaces
-5.365891	amend
-5.365891	amendable
-5.365891	amended
-5.365891	amending
-5.365891	amendment
-5.365891	amendments
-5.365891	amendola
-5.365891	amends
-5.365891	amenities
-5.365891	amenity
-5.365891	ament
-5.365891	amenta
-5.365891	amer
-5.365891	amerada
-5.365891	amerco
-5.365891	amerford
-5.365891	ameri
-5.365891	ameribanc
-5.365891	america
-5.365891	american
-5.365891	americana
-5.365891	americanas
-5.365891	americanism
-5.365891	americanization
-5.365891	americanize
-5.365891	americanized
-5.365891	americano
-5.365891	americanos
-5.365891	americans
-5.365891	americar
-5.365891	americare
-5.365891	americares
-5.365891	americas
-5.365891	americo
-5.365891	americold
-5.365891	americorp
-5.365891	americorps
-5.365891	americus
-5.365891	ameridata
-5.365891	amerifirst
-5.365891	amerigas
-5.365891	amerigo
-5.365891	amerihost
-5.365891	amerika
-5.365891	amerindian
-5.365891	amerine
-5.365891	ameritech
-5.365891	ameritrust
-5.365891	amerman
-5.365891	amero
-5.365891	ameron
-5.365891	amerongen
-5.365891	amersham
-5.365891	amerson
-5.365891	amery
-5.365891	ames
-5.365891	amesville
-5.365891	ametek
-5.365891	amethyst
-5.365891	amev
-5.365891	amex
-5.365891	amexco
-5.365891	amey
-5.365891	amezcua
-5.365891	amezquita
-5.365891	amfac
-5.365891	amfesco
-5.365891	amgen
-5.365891	amherst
-5.365891	amherstdale
-5.365891	amhoist
-5.365891	ami
-5.365891	amiability
-5.365891	amiable
-5.365891	amiably
-5.365891	amicable
-5.365891	amicably
-5.365891	amick
-5.365891	amico
-5.365891	amicone
-5.365891	amicus
-5.365891	amid
-5.365891	amidi
-5.365891	amidon
-5.365891	amidships
-5.365891	amidst
-5.365891	amie
-5.365891	amiga
-5.365891	amigo
-5.365891	amigos
-5.365891	amilia
-5.365891	amin
-5.365891	amino
-5.365891	aminta
-5.365891	amiot
-5.365891	amiprilose
-5.365891	amir
-5.365891	amiram
-5.365891	amiran
-5.365891	amirault
-5.365891	amirav
-5.365891	amiri
-5.365891	amis
-5.365891	amish
-5.365891	amison
-5.365891	amiss
-5.365891	amistad
-5.365891	amit
-5.365891	amitai
-5.365891	amity
-5.365891	amityville
-5.365891	amman
-5.365891	ammann
-5.365891	ammeen
-5.365891	ammerman
-5.365891	ammeter
-5.365891	ammeters
-5.365891	ammirati
-5.365891	ammo
-5.365891	ammon
-5.365891	ammonia
-5.365891	ammonite
-5.365891	ammonites
-5.365891	ammonium
-5.365891	ammons
-5.365891	ammunition
-5.365891	ammunitions
-5.365891	amnesia
-5.365891	amnesiac
-5.365891	amnesties
-5.365891	amnesty
-5.365891	amnio
-5.365891	amniocentesis
-5.365891	amniotic
-5.365891	amo
-5.365891	amoco
-5.365891	amoeba
-5.365891	amoebas
-5.365891	amoebic
-5.365891	amok
-5.365891	amon
-5.365891	among
-5.365891	amongst
-5.365891	amoolya
-5.365891	amor
-5.365891	amoral
-5.365891	amore
-5.365891	amorette
-5.365891	amorist
-5.365891	amorita
-5.365891	amorosi
-5.365891	amoroso
-5.365891	amorous
-5.365891	amorphous
-5.365891	amortization
-5.365891	amortize
-5.365891	amortized
-5.365891	amortizing
-5.365891	amoruso
-5.365891	amory
-5.365891	amos
-5.365891	amoskeag
-5.365891	amoss
-5.365891	amount
-5.365891	amounted
-5.365891	amounting
-5.365891	amounts
-5.365891	amoxicillin
-5.365891	amp
-5.365891	ampad
-5.365891	ampal
-5.365891	amparan
-5.365891	ampato
-5.365891	ampco
-5.365891	amperage
-5.365891	ampersand
-5.365891	ampex
-5.365891	amphenol
-5.365891	amphetamine
-5.365891	amphetamines
-5.365891	amphibian
-5.365891	amphibians
-5.365891	amphibious
-5.365891	amphibole
-5.365891	amphitheater
-5.365891	amphitheaters
-5.365891	amphitheatre
-5.365891	amphora
-5.365891	amphorae
-5.365891	ample
-5.365891	amplicons
-5.365891	amplification
-5.365891	amplifications
-5.365891	amplified
-5.365891	amplifier
-5.365891	amplifiers
-5.365891	amplifies
-5.365891	amplify
-5.365891	amplifying
-5.365891	ampligen
-5.365891	amplitude
-5.365891	amplocore
-5.365891	amply
-5.365891	ampol
-5.365891	amputate
-5.365891	amputated
-5.365891	amputation
-5.365891	amputations
-5.365891	amputee
-5.365891	amputees
-5.365891	amr
-5.365891	amraam
-5.365891	amre
-5.365891	amrein
-5.365891	amrep
-5.365891	amrhein
-5.365891	amrine
-5.365891	amritsar
-5.365891	amro
-5.365891	ams
-5.365891	amsbaugh
-5.365891	amsco
-5.365891	amsden
-5.365891	amsler
-5.365891	amsouth
-5.365891	amspacher
-5.365891	amstar
-5.365891	amster
-5.365891	amsterdam
-5.365891	amstrad
-5.365891	amstutz
-5.365891	amtech
-5.365891	amtrack
-5.365891	amtrak
-5.365891	amuck
-5.365891	amulet
-5.365891	amulets
-5.365891	amundsen
-5.365891	amundson
-5.365891	amuse
-5.365891	amused
-5.365891	amusement
-5.365891	amusements
-5.365891	amuses
-5.365891	amusing
-5.365891	amusingly
-5.365891	amvest
-5.365891	amvestor
-5.365891	amvestors
-5.365891	amway
-5.365891	amy
-5.365891	amygdala
-5.365891	amylin
-5.365891	amyloid
-5.365891	amyotrophic
-5.365891	amyx
-5.365891	an
-5.365891	ana
-5.365891	anabaptist
-5.365891	anable
-5.365891	anabolic
-5.365891	anac
-5.365891	anachronism
-5.365891	anachronisms
-5.365891	anachronistic
-5.365891	anacin
-5.365891	anacker
-5.365891	anacomp
-5.365891	anaconda
-5.365891	anacortes
-5.365891	anacostia
-5.365891	anadarko
-5.365891	anaerobe
-5.365891	anaerobes
-5.365891	anaerobic
-5.365891	anaesthesia
-5.365891	anafranil
-5.365891	anagnos
-5.365891	anagram
-5.365891	anaheim
-5.365891	anal
-5.365891	analgesic
-5.365891	analgesics
-5.365891	analog
-5.365891	analogic
-5.365891	analogies
-5.365891	analogous
-5.365891	analogue
-5.365891	analogy
-5.365891	analyses
-5.365891	analysis
-5.365891	analyst
-5.365891	analysts
-5.365891	analytic
-5.365891	analytical
-5.365891	analytically
-5.365891	analyticity
-5.365891	analytics
-5.365891	analyzable
-5.365891	analyze
-5.365891	analyzed
-5.365891	analyzer
-5.365891	analyzers
-5.365891	analyzes
-5.365891	analyzing
-5.365891	anamaria
-5.365891	anand
-5.365891	anandale
-5.365891	anandeep
-5.365891	anania
-5.365891	anantha
-5.365891	anaphora
-5.365891	anaphylaxis
-5.365891	anarchic
-5.365891	anarchical
-5.365891	anarchist
-5.365891	anarchists
-5.365891	anarchy
-5.365891	anaren
-5.365891	anas
-5.365891	anasazi
-5.365891	anasquan
-5.365891	anast
-5.365891	anastas
-5.365891	anastasi
-5.365891	anastasia
-5.365891	anastasio
-5.365891	anastos
-5.365891	anathema
-5.365891	anatola
-5.365891	anatole
-5.365891	anatoli
-5.365891	anatolia
-5.365891	anatolian
-5.365891	anatoly
-5.365891	anatomical
-5.365891	anatomically
-5.365891	anatomist
-5.365891	anatomy
-5.365891	anawalt
-5.365891	anaya
-5.365891	anbari
-5.365891	ancel
-5.365891	ancell
-5.365891	ancestor
-5.365891	ancestors
-5.365891	ancestral
-5.365891	ancestry
-5.365891	ancheta
-5.365891	ancho
-5.365891	anchondo
-5.365891	anchor
-5.365891	anchorage
-5.365891	anchored
-5.365891	anchoring
-5.365891	anchorman
-5.365891	anchormen
-5.365891	anchors
-5.365891	anchovies
-5.365891	anchovy
-5.365891	ancient
-5.365891	ancients
-5.365891	ancillary
-5.365891	ancira
-5.365891	ancona
-5.365891	ancrum
-5.365891	anctil
-5.365891	and
-5.365891	andal
-5.365891	andalusia
-5.365891	andalusian
-5.365891	andante
-5.365891	andantino
-5.365891	andean
-5.365891	andel
-5.365891	ander
-5.365891	andera
-5.365891	anderberg
-5.365891	anderegg
-5.365891	anderle
-5.365891	anderlini
-5.365891	anderman
-5.365891	anders
-5.365891	andersen
-5.365891	anderson
-5.365891	andersons
-5.365891	andersonville
-5.365891	andersson
-5.365891	andert
-5.365891	anderton
-5.365891	andes
-5.365891	andesite
-5.365891	andie
-5.365891	anding
-5.365891	andino
-5.365891	andiron
-5.365891	andis
-5.365891	andler
-5.365891	ando
-5.365891	andolina
-5.365891	andonian
-5.365891	andoras
-5.365891	andorra
-5.365891	andover
-5.365891	andrada
-5.365891	andrade
-5.365891	andrae
-5.365891	andraki
-5.365891	andras
-5.365891	andre
-5.365891	andrea
-5.365891	andreae
-5.365891	andreana
-5.365891	andreani
-5.365891	andreano
-5.365891	andreas
-5.365891	andreasen
-5.365891	andreason
-5.365891	andreassen
-5.365891	andree
-5.365891	andreen
-5.365891	andrei
-5.365891	andreini
-5.365891	andrej
-5.365891	andren
-5.365891	andreoli
-5.365891	andreoni
-5.365891	andreotti
-5.365891	andreozzi
-5.365891	andrepont
-5.365891	andres
-5.365891	andresen
-5.365891	andreski
-5.365891	andress
-5.365891	andretti
-5.365891	andreu
-5.365891	andrew
-5.365891	andrews
-5.365891	andrey
-5.365891	andrezak
-5.365891	andria
-5.365891	andriana
-5.365891	andriano
-5.365891	andric
-5.365891	andrich
-5.365891	andrick
-5.365891	andries
-5.365891	andriessen
-5.365891	andringa
-5.365891	andriola
-5.365891	andrist
-5.365891	androgynous
-5.365891	androgyny
-5.365891	android
-5.365891	androids
-5.365891	andromeda
-5.365891	andropov
-5.365891	andros
-5.365891	andrus
-5.365891	andruskevich
-5.365891	andry
-5.365891	andrzej
-5.365891	andrzejewski
-5.365891	ands
-5.365891	andujar
-5.365891	andy
-5.365891	ane
-5.365891	anecdotal
-5.365891	anecdotally
-5.365891	anecdote
-5.365891	anecdotes
-5.365891	anello
-5.365891	anemia
-5.365891	anemias
-5.365891	anemic
-5.365891	anemometer
-5.365891	anemone
-5.365891	anencephalic
-5.365891	anencephaly
-5.365891	anestachio
-5.365891	anesthesia
-5.365891	anesthesiologist
-5.365891	anesthesiologists
-5.365891	anesthesiology
-5.365891	anesthetic
-5.365891	anesthetics
-5.365891	anesthetist
-5.365891	anette
-5.365891	aneurism
-5.365891	anew
-5.365891	anfal
-5.365891	anfinson
-5.365891	ang
-5.365891	ange
-5.365891	angel
-5.365891	angela
-5.365891	angeleno
-5.365891	angelenos
-5.365891	angeles
-5.365891	angeletti
-5.365891	angelfish
-5.365891	angeli
-5.365891	angelic
-5.365891	angelica
-5.365891	angelically
-5.365891	angelicas
-5.365891	angelico
-5.365891	angelika
-5.365891	angelillo
-5.365891	angelina
-5.365891	angeline
-5.365891	angelini
-5.365891	angelino
-5.365891	angelinos
-5.365891	angelita
-5.365891	angell
-5.365891	angelle
-5.365891	angello
-5.365891	angelo
-5.365891	angeloff
-5.365891	angelone
-5.365891	angeloni
-5.365891	angelos
-5.365891	angelou
-5.365891	angeloz
-5.365891	angels
-5.365891	angelucci
-5.365891	anger
-5.365891	angered
-5.365891	angerer
-5.365891	angering
-5.365891	angerman
-5.365891	angermeier
-5.365891	angers
-5.365891	angert
-5.365891	angevine
-5.365891	angi
-5.365891	angie
-5.365891	angier
-5.365891	angina
-5.365891	angio
-5.365891	angiogram
-5.365891	angiomedic
-5.365891	angiomedics
-5.365891	angioplasty
-5.365891	angiotensin
-5.365891	angle
-5.365891	angled
-5.365891	anglemyer
-5.365891	anglen
-5.365891	angler
-5.365891	anglers
-5.365891	angles
-5.365891	angleton
-5.365891	angley
-5.365891	anglia
-5.365891	anglican
-5.365891	anglicize
-5.365891	anglicized
-5.365891	anglim
-5.365891	anglin
-5.365891	angling
-5.365891	anglo
-5.365891	anglo-catholicism
-5.365891	anglophile
-5.365891	anglos
-5.365891	angola
-5.365891	angolan
-5.365891	angolans
-5.365891	angora
-5.365891	angoras
-5.365891	angotti
-5.365891	angove
-5.365891	angrier
-5.365891	angriest
-5.365891	angrily
-5.365891	angry
-5.365891	angst
-5.365891	angstadt
-5.365891	angstrom
-5.365891	angstroms
-5.365891	anguiano
-5.365891	anguilla
-5.365891	anguish
-5.365891	anguished
-5.365891	anguishing
-5.365891	angular
-5.365891	angulate
-5.365891	angulated
-5.365891	angulo
-5.365891	angus
-5.365891	angy
-5.365891	anhalt
-5.365891	anheuser
-5.365891	anhydride
-5.365891	aniak
-5.365891	anibal
-5.365891	anikst
-5.365891	aniline
-5.365891	animal
-5.365891	animals
-5.365891	animate
-5.365891	animated
-5.365891	animates
-5.365891	animation
-5.365891	animations
-5.365891	animator
-5.365891	animators
-5.365891	animism
-5.365891	animist
-5.365891	animists
-5.365891	animosities
-5.365891	animosity
-5.365891	animous
-5.365891	animus
-5.365891	aninat
-5.365891	anise
-5.365891	aniseed
-5.365891	anisette
-5.365891	anita
-5.365891	anitec
-5.365891	anitole
-5.365891	anixter
-5.365891	anja
-5.365891	anjelica
-5.365891	ankara
-5.365891	ankeney
-5.365891	ankeny
-5.365891	anker
-5.365891	ankerium
-5.365891	ankh
-5.365891	anklam
-5.365891	ankle
-5.365891	anklebone
-5.365891	ankles
-5.365891	anklet
-5.365891	anklets
-5.365891	ankney
-5.365891	ankrom
-5.365891	ankrum
-5.365891	ann
-5.365891	anna
-5.365891	annabel
-5.365891	annabella
-5.365891	annabelle
-5.365891	annable
-5.365891	annal
-5.365891	annals
-5.365891	annamese
-5.365891	annan
-5.365891	annandale
-5.365891	annapolis
-5.365891	annas
-5.365891	annaud
-5.365891	anne
-5.365891	anneal
-5.365891	annealing
-5.365891	annelid
-5.365891	annelids
-5.365891	annen
-5.365891	annenberg
-5.365891	annese
-5.365891	annett
-5.365891	annette
-5.365891	annex
-5.365891	annexation
-5.365891	annexed
-5.365891	annexes
-5.365891	annexing
-5.365891	annick
-5.365891	annie
-5.365891	annihilate
-5.365891	annihilated
-5.365891	annihilating
-5.365891	annihilation
-5.365891	annis
-5.365891	anniston
-5.365891	anniversaries
-5.365891	anniversary
-5.365891	anno
-5.365891	annotate
-5.365891	annotated
-5.365891	annotates
-5.365891	annotating
-5.365891	annotation
-5.365891	annotations
-5.365891	announce
-5.365891	announced
-5.365891	announcement
-5.365891	announcements
-5.365891	announcer
-5.365891	announcers
-5.365891	announces
-5.365891	announcing
-5.365891	announcment
-5.365891	annoy
-5.365891	annoyance
-5.365891	annoyances
-5.365891	annoyed
-5.365891	annoying
-5.365891	annoys
-5.365891	annual
-5.365891	annualize
-5.365891	annualized
-5.365891	annually
-5.365891	annuals
-5.365891	annuit
-5.365891	annuities
-5.365891	annuity
-5.365891	annul
-5.365891	annular
-5.365891	annulled
-5.365891	annulment
-5.365891	annum
-5.365891	annunciata
-5.365891	annunziata
-5.365891	annunziato
-5.365891	annunzio
-5.365891	anny
-5.365891	ano
-5.365891	anode
-5.365891	anodes
-5.365891	anoint
-5.365891	anointed
-5.365891	anomalies
-5.365891	anomalous
-5.365891	anomaly
-5.365891	anomie
-5.365891	anona
-5.365891	anonymity
-5.365891	anonymous
-5.365891	anonymously
-5.365891	anora
-5.365891	anorak
-5.365891	anorexia
-5.365891	anorexic
-5.365891	anorexics
-5.365891	anorthite
-5.365891	another
-5.365891	anreder
-5.365891	anrig
-5.365891	ansa
-5.365891	ansaid
-5.365891	ansaldo
-5.365891	ansang
-5.365891	ansari
-5.365891	ansbacher
-5.365891	anschel
-5.365891	anschluss
-5.365891	anschutz
-5.365891	anscom
-5.365891	anscomb
-5.365891	anse
-5.365891	ansel
-5.365891	ansell
-5.365891	anselm
-5.365891	anselma
-5.365891	anselmi
-5.365891	anselmo
-5.365891	ansett
-5.365891	ansgar
-5.365891	anshan
-5.365891	ansin
-5.365891	ansley
-5.365891	ansohn
-5.365891	anson
-5.365891	ansonia
-5.365891	anspach
-5.365891	anspaugh
-5.365891	anstead
-5.365891	anstett
-5.365891	anstey
-5.365891	anstice
-5.365891	anstine
-5.365891	anstiss
-5.365891	answer
-5.365891	answerable
-5.365891	answered
-5.365891	answering
-5.365891	answers
-5.365891	ant
-5.365891	antacid
-5.365891	antacids
-5.365891	antagonism
-5.365891	antagonisms
-5.365891	antagonist
-5.365891	antagonistic
-5.365891	antagonists
-5.365891	antagonize
-5.365891	antagonized
-5.365891	antagonizing
-5.365891	antal
-5.365891	antar
-5.365891	antarctic
-5.365891	antarctica
-5.365891	antares
-5.365891	antaya
-5.365891	antczak
-5.365891	ante
-5.365891	anteater
-5.365891	anteaters
-5.365891	antebellum
-5.365891	antec
-5.365891	antecedent
-5.365891	antecedents
-5.365891	anted
-5.365891	antell
-5.365891	antelope
-5.365891	antemeridian
-5.365891	antemortem
-5.365891	antenna
-5.365891	antennae
-5.365891	antennas
-5.365891	antenne
-5.365891	antenucci
-5.365891	anterior
-5.365891	anteriormost
-5.365891	antes
-5.365891	anthea
-5.365891	anthem
-5.365891	anthems
-5.365891	anthes
-5.365891	anthiel
-5.365891	anthill
-5.365891	anthills
-5.365891	anthis
-5.365891	anthologies
-5.365891	anthology
-5.365891	anthon
-5.365891	anthony
-5.365891	anthracite
-5.365891	anthrax
-5.365891	anthrobot
-5.365891	anthropocentric
-5.365891	anthropogenic
-5.365891	anthropological
-5.365891	anthropologist
-5.365891	anthropologists
-5.365891	anthropology
-5.365891	anthropomorphic
-5.365891	anthropomorphism
-5.365891	anti
-5.365891	anti-catholicism
-5.365891	anti-federalist
-5.365891	anti-federalists
-5.365891	anti-infective
-5.365891	antiabortion
-5.365891	antiaircraft
-5.365891	antibacterial
-5.365891	antiballistic
-5.365891	antibiotic
-5.365891	antibioticos
-5.365891	antibiotics
-5.365891	antibodies
-5.365891	antibody
-5.365891	antic
-5.365891	anticancer
-5.365891	anticipate
-5.365891	anticipated
-5.365891	anticipates
-5.365891	anticipating
-5.365891	anticipation
-5.365891	anticipations
-5.365891	anticipatory
-5.365891	anticlimactic
-5.365891	anticline
-5.365891	antico
-5.365891	anticommunist
-5.365891	anticompetitive
-5.365891	anticorruption
-5.365891	anticrime
-5.365891	antics
-5.365891	antidepressant
-5.365891	antidepressants
-5.365891	antidiscrimination
-5.365891	antidisestablishmentarianism
-5.365891	antidote
-5.365891	antidrug
-5.365891	antidumping
-5.365891	antifraud
-5.365891	antifreeze
-5.365891	antifungal
-5.365891	antigay
-5.365891	antigen
-5.365891	antigens
-5.365891	antigone
-5.365891	antigones
-5.365891	antigovernment
-5.365891	antigua
-5.365891	antihistamine
-5.365891	antihistamines
-5.365891	antiknock
-5.365891	antill
-5.365891	antilla
-5.365891	antilles
-5.365891	antilock
-5.365891	antimatter
-5.365891	antimissile
-5.365891	antioch
-5.365891	antiochus
-5.365891	antioxidant
-5.365891	antioxidants
-5.365891	antipathies
-5.365891	antipathy
-5.365891	antipersonell
-5.365891	antiphon
-5.365891	antiphons
-5.365891	antipodal
-5.365891	antipoverty
-5.365891	antiquate
-5.365891	antiquated
-5.365891	antique
-5.365891	antiques
-5.365891	antiquities
-5.365891	antiquity
-5.365891	antireformer
-5.365891	antireformers
-5.365891	antis
-5.365891	antisense
-5.365891	antiseptic
-5.365891	antismoking
-5.365891	antisocial
-5.365891	antisubmarine
-5.365891	antitakeover
-5.365891	antitank
-5.365891	antitax
-5.365891	antitheft
-5.365891	antithesis
-5.365891	antithetical
-5.365891	antitoxin
-5.365891	antitoxins
-5.365891	antitrust
-5.365891	antiviral
-5.365891	antiwar
-5.365891	antkowiak
-5.365891	antle
-5.365891	antler
-5.365891	antlered
-5.365891	antlers
-5.365891	antley
-5.365891	antoine
-5.365891	antoinette
-5.365891	antol
-5.365891	antolik
-5.365891	antolini
-5.365891	anton
-5.365891	antonacci
-5.365891	antone
-5.365891	antonelli
-5.365891	antonellis
-5.365891	antonetti
-5.365891	antoni
-5.365891	antonia
-5.365891	antonin
-5.365891	antonini
-5.365891	antonio
-5.365891	antonios
-5.365891	antoniou
-5.365891	antoniu
-5.365891	antonius
-5.365891	antonopoulos
-5.365891	antonovich
-5.365891	antonsen
-5.365891	antonson
-5.365891	antonucci
-5.365891	antony
-5.365891	antoon
-5.365891	antos
-5.365891	antosh
-5.365891	antril
-5.365891	antrim
-5.365891	antrobus
-5.365891	ants
-5.365891	antsy
-5.365891	anttila
-5.365891	antuna
-5.365891	antunes
-5.365891	antunez
-5.365891	antwerp
-5.365891	antwine
-5.365891	anus
-5.365891	anvil
-5.365891	anwar
-5.365891	anway
-5.365891	anwell
-5.365891	anwyl
-5.365891	anwyll
-5.365891	anxieties
-5.365891	anxiety
-5.365891	anxious
-5.365891	anxiously
-5.365891	any
-5.365891	anybody
-5.365891	anyhow
-5.365891	anymore
-5.365891	anyon
-5.365891	anyone
-5.365891	anyplace
-5.365891	anything
-5.365891	anytime
-5.365891	anyway
-5.365891	anyways
-5.365891	anywhere
-5.365891	anza
-5.365891	anzaldua
-5.365891	anzalone
-5.365891	anzelmo
-5.365891	anzio
-5.365891	anzus
-5.365891	aoi
-5.365891	aoki
-5.365891	aol
-5.365891	aon
-5.365891	aorta
-5.365891	aortic
-5.365891	aoshima
-5.365891	aoun
-5.365891	aouzou
-5.365891	aoyama
-5.365891	apace
-5.365891	apache
-5.365891	apaches
-5.365891	apacs
-5.365891	apalachicola
-5.365891	aparicio
-5.365891	apart
-5.365891	apartheid
-5.365891	apartment
-5.365891	apartments
-5.365891	apathetic
-5.365891	apathy
-5.365891	apatite
-5.365891	apatites
-5.365891	apc
-5.365891	apcar
-5.365891	ape
-5.365891	apec
-5.365891	apel
-5.365891	apelike
-5.365891	apennine
-5.365891	aperture
-5.365891	apes
-5.365891	apex
-5.365891	apfel
-5.365891	apfelbaum
-5.365891	apgar
-5.365891	aphasia
-5.365891	aphid
-5.365891	aphids
-5.365891	aphorism
-5.365891	aphorisms
-5.365891	aphrodisiac
-5.365891	aphrodite
-5.365891	aphrodites
-5.365891	apicella
-5.365891	apiece
-5.365891	aping
-5.365891	aplenty
-5.365891	aplin
-5.365891	aplomb
-5.365891	apnea
-5.365891	apocalypse
-5.365891	apocalyptic
-5.365891	apocryphal
-5.365891	apodaca
-5.365891	apogee
-5.365891	apolitical
-5.365891	apolline
-5.365891	apollinian
-5.365891	apollo
-5.365891	apollonian
-5.365891	apologetic
-5.365891	apologetically
-5.365891	apologies
-5.365891	apologist
-5.365891	apologists
-5.365891	apologize
-5.365891	apologized
-5.365891	apologizes
-5.365891	apologizing
-5.365891	apology
-5.365891	aponte
-5.365891	apopa
-5.365891	apopka
-5.365891	apoplectic
-5.365891	apoplexy
-5.365891	apostate
-5.365891	apostle
-5.365891	apostles
-5.365891	apostol
-5.365891	apostolopoul
-5.365891	apostrophe
-5.365891	apothecary
-5.365891	apotheosis
-5.365891	app
-5.365891	appalachia
-5.365891	appalachian
-5.365891	appalachians
-5.365891	appall
-5.365891	appalled
-5.365891	appalling
-5.365891	appallingly
-5.365891	appalls
-5.365891	apparatchik
-5.365891	apparatchiks
-5.365891	apparatus
-5.365891	apparatuses
-5.365891	apparel
-5.365891	apparent
-5.365891	apparently
-5.365891	apparition
-5.365891	apparitions
-5.365891	appeal
-5.365891	appealable
-5.365891	appealed
-5.365891	appealing
-5.365891	appealingly
-5.365891	appeals
-5.365891	appear
-5.365891	appearance
-5.365891	appearances
-5.365891	appeared
-5.365891	appearing
-5.365891	appears
-5.365891	appease
-5.365891	appeased
-5.365891	appeasement
-5.365891	appeasing
-5.365891	appel
-5.365891	appelbaum
-5.365891	appelhans
-5.365891	appell
-5.365891	appellate
-5.365891	appellation
-5.365891	appellations
-5.365891	appelman
-5.365891	appelt
-5.365891	append
-5.365891	appendage
-5.365891	appendages
-5.365891	appendectomies
-5.365891	appendectomy
-5.365891	appended
-5.365891	appendix
-5.365891	appendixes
-5.365891	appenzeller
-5.365891	apperson
-5.365891	appert
-5.365891	appetite
-5.365891	appetites
-5.365891	appetito
-5.365891	appetizer
-5.365891	appetizers
-5.365891	appetizing
-5.365891	appia
-5.365891	appian
-5.365891	applaud
-5.365891	applauded
-5.365891	applauding
-5.365891	applauds
-5.365891	applause
-5.365891	apple
-5.365891	appleans
-5.365891	applebaum
-5.365891	applebee
-5.365891	appleberry
-5.365891	appleby
-5.365891	applegarth
-5.365891	applegate
-5.365891	appleman
-5.365891	applequist
-5.365891	apples
-5.365891	applesauce
-5.365891	appleseed
-5.365891	appleshare
-5.365891	applet
-5.365891	appleton
-5.365891	applewhite
-5.365891	appleyard
-5.365891	appliance
-5.365891	appliances
-5.365891	applicability
-5.365891	applicable
-5.365891	applicant
-5.365891	applicants
-5.365891	application
-5.365891	applications
-5.365891	applicator
-5.365891	applicators
-5.365891	applied
-5.365891	applies
-5.365891	applin
-5.365891	appling
-5.365891	apply
-5.365891	applying
-5.365891	appoint
-5.365891	appointed
-5.365891	appointee
-5.365891	appointees
-5.365891	appointing
-5.365891	appointive
-5.365891	appointment
-5.365891	appointments
-5.365891	appoints
-5.365891	apportion
-5.365891	apportioned
-5.365891	apportioning
-5.365891	apportionment
-5.365891	appraisal
-5.365891	appraisals
-5.365891	appraise
-5.365891	appraised
-5.365891	appraiser
-5.365891	appraisers
-5.365891	appraises
-5.365891	appraising
-5.365891	appreciable
-5.365891	appreciably
-5.365891	appreciate
-5.365891	appreciated
-5.365891	appreciates
-5.365891	appreciating
-5.365891	appreciation
-5.365891	appreciative
-5.365891	appreciatively
-5.365891	apprehend
-5.365891	apprehended
-5.365891	apprehending
-5.365891	apprehension
-5.365891	apprehensions
-5.365891	apprehensive
-5.365891	apprentice
-5.365891	apprenticed
-5.365891	apprentices
-5.365891	apprenticeship
-5.365891	apprenticeships
-5.365891	apprise
-5.365891	apprised
-5.365891	appro
-5.365891	approach
-5.365891	approachable
-5.365891	approached
-5.365891	approaches
-5.365891	approaching
-5.365891	approbation
-5.365891	appropriate
-5.365891	appropriated
-5.365891	appropriately
-5.365891	appropriateness
-5.365891	appropriates
-5.365891	appropriating
-5.365891	appropriation
-5.365891	appropriations
-5.365891	appropriator
-5.365891	appropriators
-5.365891	approvable
-5.365891	approval
-5.365891	approvals
-5.365891	approve
-5.365891	approved
-5.365891	approves
-5.365891	approving
-5.365891	approvingly
-5.365891	approximate
-5.365891	approximated
-5.365891	approximately
-5.365891	approximates
-5.365891	approximating
-5.365891	approximation
-5.365891	approximations
-5.365891	apps
-5.365891	apra
-5.365891	aprea
-5.365891	apricot
-5.365891	apricots
-5.365891	april
-5.365891	aprile
-5.365891	apriori
-5.365891	aprodiva
-5.365891	apron
-5.365891	aprons
-5.365891	apropos
-5.365891	apsell
-5.365891	apsey
-5.365891	apso
-5.365891	apstar
-5.365891	apt
-5.365891	apter
-5.365891	aptitude
-5.365891	aptitudes
-5.365891	aptiva
-5.365891	aptly
-5.365891	apuzzo
-5.365891	aqaba
-5.365891	aqazadeh
-5.365891	aqua
-5.365891	aquaculture
-5.365891	aqualung
-5.365891	aquamarine
-5.365891	aquanaut
-5.365891	aquanauts
-5.365891	aquarist
-5.365891	aquarists
-5.365891	aquarium
-5.365891	aquariums
-5.365891	aquarius
-5.365891	aquatic
-5.365891	aqueduct
-5.365891	aqueducts
-5.365891	aqueous
-5.365891	aquifer
-5.365891	aquifers
-5.365891	aquila
-5.365891	aquilar
-5.365891	aquilina
-5.365891	aquilino
-5.365891	aquinas
-5.365891	aquino
-5.365891	aquirre
-5.365891	aquitaine
-5.365891	ar
-5.365891	ara
-5.365891	arab
-5.365891	arabe
-5.365891	arabella
-5.365891	arabia
-5.365891	arabian
-5.365891	arabians
-5.365891	arabic
-5.365891	arabica
-5.365891	arabichon
-5.365891	arabicon
-5.365891	arabie
-5.365891	arable
-5.365891	arabs
-5.365891	arachnid
-5.365891	arachnids
-5.365891	arafat
-5.365891	aragon
-5.365891	aragona
-5.365891	arai
-5.365891	araiza
-5.365891	arakaki
-5.365891	arakawa
-5.365891	arakelian
-5.365891	araki
-5.365891	aral
-5.365891	arambula
-5.365891	aramco
-5.365891	aramid
-5.365891	araminta
-5.365891	aramis
-5.365891	aramony
-5.365891	aran
-5.365891	arana
-5.365891	aranda
-5.365891	arango
-5.365891	aransas
-5.365891	arant
-5.365891	arantza
-5.365891	aranyos
-5.365891	arapaho
-5.365891	arapahoe
-5.365891	ararat
-5.365891	araskog
-5.365891	arata
-5.365891	arau
-5.365891	araujo
-5.365891	aravind
-5.365891	araya
-5.365891	arb
-5.365891	arba
-5.365891	arbat
-5.365891	arbaugh
-5.365891	arbed
-5.365891	arbeiter
-5.365891	arbel
-5.365891	arbella
-5.365891	arbenz
-5.365891	arbiter
-5.365891	arbiters
-5.365891	arbitrage
-5.365891	arbitrager
-5.365891	arbitragers
-5.365891	arbitrageur
-5.365891	arbitrageurs
-5.365891	arbitraging
-5.365891	arbitrarily
-5.365891	arbitrariness
-5.365891	arbitrary
-5.365891	arbitrate
-5.365891	arbitrated
-5.365891	arbitrates
-5.365891	arbitrating
-5.365891	arbitration
-5.365891	arbitrations
-5.365891	arbitrator
-5.365891	arbitrators
-5.365891	arbitron
-5.365891	arbo
-5.365891	arbogast
-5.365891	arboleda
-5.365891	arbor
-5.365891	arboreal
-5.365891	arboretum
-5.365891	arborville
-5.365891	arbothnott
-5.365891	arbour
-5.365891	arbs
-5.365891	arbuckle
-5.365891	arbuckles
-5.365891	arbuthnot
-5.365891	arby
-5.365891	arc
-5.365891	arcade
-5.365891	arcades
-5.365891	arcadia
-5.365891	arcadian
-5.365891	arcadians
-5.365891	arcana
-5.365891	arcand
-5.365891	arcane
-5.365891	arcanum
-5.365891	arcaro
-5.365891	arcata
-5.365891	arce
-5.365891	arcement
-5.365891	arceneaux
-5.365891	arceo
-5.365891	arch
-5.365891	archaeological
-5.365891	archaeologist
-5.365891	archaeologists
-5.365891	archaeology
-5.365891	archaic
-5.365891	archambault
-5.365891	archambeau
-5.365891	archambeault
-5.365891	archangel
-5.365891	archangels
-5.365891	archard
-5.365891	archbishop
-5.365891	archbold
-5.365891	archdiocese
-5.365891	archduke
-5.365891	arched
-5.365891	archenemy
-5.365891	archeological
-5.365891	archeology
-5.365891	archer
-5.365891	archerd
-5.365891	archery
-5.365891	arches
-5.365891	archetypal
-5.365891	archetype
-5.365891	archetypes
-5.365891	archey
-5.365891	archibald
-5.365891	archibeque
-5.365891	archie
-5.365891	archimedes
-5.365891	arching
-5.365891	archipelago
-5.365891	architect
-5.365891	architects
-5.365891	architectural
-5.365891	architecturally
-5.365891	architecture
-5.365891	architectures
-5.365891	architrave
-5.365891	architraves
-5.365891	archival
-5.365891	archive
-5.365891	archives
-5.365891	archivist
-5.365891	archivists
-5.365891	archly
-5.365891	archrival
-5.365891	archrivals
-5.365891	archuleta
-5.365891	archuletta
-5.365891	archway
-5.365891	arcidiacono
-5.365891	arcieri
-5.365891	arciniega
-5.365891	arco
-5.365891	arcola
-5.365891	arcos
-5.365891	arcosanti
-5.365891	arcs
-5.365891	arctic
-5.365891	arcturus
-5.365891	arcuri
-5.365891	ard
-5.365891	arda
-5.365891	ardath
-5.365891	ardeen
-5.365891	ardelia
-5.365891	ardella
-5.365891	ardelle
-5.365891	arden
-5.365891	ardene
-5.365891	ardent
-5.365891	ardently
-5.365891	ardin
-5.365891	ardine
-5.365891	ardis
-5.365891	ardith
-5.365891	ardito
-5.365891	ardley
-5.365891	ardmore
-5.365891	ardoin
-5.365891	ardolino
-5.365891	ardolph
-5.365891	ardor
-5.365891	ardoyne
-5.365891	ardra
-5.365891	ardrey
-5.365891	ardshiel
-5.365891	ardsley
-5.365891	arduini
-5.365891	arduous
-5.365891	are
-5.365891	area
-5.365891	areas
-5.365891	arebalo
-5.365891	arechiga
-5.365891	arehart
-5.365891	arel
-5.365891	arellanes
-5.365891	arellano
-5.365891	aren
-5.365891	arena
-5.365891	arenaball
-5.365891	arenas
-5.365891	arencibia
-5.365891	arend
-5.365891	arends
-5.365891	arendsee
-5.365891	arendt
-5.365891	arenella
-5.365891	arens
-5.365891	arenson
-5.365891	arent
-5.365891	arentz
-5.365891	arenz
-5.365891	ares
-5.365891	areta
-5.365891	aretha
-5.365891	aretina
-5.365891	aretsky
-5.365891	aretta
-5.365891	arevalo
-5.365891	arey
-5.365891	argabright
-5.365891	argall
-5.365891	arganbright
-5.365891	argenbright
-5.365891	argent
-5.365891	argenta
-5.365891	argentieri
-5.365891	argentina
-5.365891	argentinas
-5.365891	argentine
-5.365891	argentines
-5.365891	argentinian
-5.365891	argentinians
-5.365891	argento
-5.365891	argiro
-5.365891	argo
-5.365891	argon
-5.365891	argonaut
-5.365891	argonauts
-5.365891	argonne
-5.365891	argosy
-5.365891	argosystem
-5.365891	argosystems
-5.365891	argot
-5.365891	arguable
-5.365891	arguably
-5.365891	argue
-5.365891	argued
-5.365891	arguelles
-5.365891	arguello
-5.365891	argues
-5.365891	argueta
-5.365891	arguijo
-5.365891	arguing
-5.365891	argument
-5.365891	argumentation
-5.365891	argumentative
-5.365891	arguments
-5.365891	argus
-5.365891	argyle
-5.365891	argyll
-5.365891	argyropoulos
-5.365891	ari
-5.365891	aria
-5.365891	ariadne
-5.365891	arian
-5.365891	ariana
-5.365891	ariane
-5.365891	arianespace
-5.365891	arianism
-5.365891	arianna
-5.365891	arias
-5.365891	aric
-5.365891	arico
-5.365891	arid
-5.365891	arida
-5.365891	arie
-5.365891	ariel
-5.365891	ariella
-5.365891	aries
-5.365891	arington
-5.365891	ariola
-5.365891	aris
-5.365891	arise
-5.365891	arisen
-5.365891	arises
-5.365891	arising
-5.365891	arison
-5.365891	arispe
-5.365891	arista
-5.365891	aristech
-5.365891	aristede
-5.365891	aristide
-5.365891	aristocracy
-5.365891	aristocrat
-5.365891	aristocratic
-5.365891	aristocrats
-5.365891	aristophanes
-5.365891	aristotelian
-5.365891	aristotle
-5.365891	arithmetic
-5.365891	ariza
-5.365891	arizmendi
-5.365891	arizona
-5.365891	arizonan
-5.365891	arizonans
-5.365891	arjo
-5.365891	ark
-5.365891	arkadelphia
-5.365891	arkadi
-5.365891	arkady
-5.365891	arkansan
-5.365891	arkansans
-5.365891	arkansas
-5.365891	arkarow
-5.365891	arkin
-5.365891	arkla
-5.365891	arko
-5.365891	arkose
-5.365891	arkwright
-5.365891	arlana
-5.365891	arlauskas
-5.365891	arledge
-5.365891	arleen
-5.365891	arlen
-5.365891	arlena
-5.365891	arlene
-5.365891	arleta
-5.365891	arlette
-5.365891	arley
-5.365891	arlie
-5.365891	arlin
-5.365891	arlinda
-5.365891	arline
-5.365891	arlington
-5.365891	arlt
-5.365891	arlyne
-5.365891	arm
-5.365891	armacost
-5.365891	armada
-5.365891	armadillo
-5.365891	armadillos
-5.365891	armageddon
-5.365891	armagost
-5.365891	armament
-5.365891	armaments
-5.365891	arman
-5.365891	armand
-5.365891	armando
-5.365891	armandt
-5.365891	armani
-5.365891	armantrout
-5.365891	armaro
-5.365891	armas
-5.365891	armato
-5.365891	armband
-5.365891	armbands
-5.365891	armbrister
-5.365891	armbrust
-5.365891	armbruster
-5.365891	armchair
-5.365891	armchairs
-5.365891	armco
-5.365891	armed
-5.365891	armel
-5.365891	armellino
-5.365891	armen
-5.365891	armendarez
-5.365891	armendariz
-5.365891	armenia
-5.365891	armenian
-5.365891	armenians
-5.365891	arment
-5.365891	armenta
-5.365891	armentor
-5.365891	armentrout
-5.365891	armer
-5.365891	armes
-5.365891	armested
-5.365891	armetta
-5.365891	armey
-5.365891	armfield
-5.365891	armida
-5.365891	armies
-5.365891	armiger
-5.365891	armijo
-5.365891	armilla
-5.365891	armin
-5.365891	armina
-5.365891	armine
-5.365891	arming
-5.365891	armington
-5.365891	arminie
-5.365891	armistead
-5.365891	armistice
-5.365891	armitage
-5.365891	armoire
-5.365891	armoires
-5.365891	armold
-5.365891	armon
-5.365891	armond
-5.365891	armonk
-5.365891	armor
-5.365891	armored
-5.365891	armories
-5.365891	armory
-5.365891	armour
-5.365891	armpit
-5.365891	armpits
-5.365891	armrest
-5.365891	armrests
-5.365891	arms
-5.365891	armstead
-5.365891	armstrad
-5.365891	armstrong
-5.365891	armtec
-5.365891	armtek
-5.365891	armwood
-5.365891	army
-5.365891	arn
-5.365891	arnal
-5.365891	arnalda
-5.365891	arnaldo
-5.365891	arnall
-5.365891	arnatt
-5.365891	arnaud
-5.365891	arnault
-5.365891	arnaz
-5.365891	arndt
-5.365891	arne
-5.365891	arnell
-5.365891	arnelle
-5.365891	arner
-5.365891	arnesen
-5.365891	arneson
-5.365891	arnett
-5.365891	arnette
-5.365891	arney
-5.365891	arnhold
-5.365891	arnholt
-5.365891	arnie
-5.365891	arnn
-5.365891	arno
-5.365891	arnold
-5.365891	arnoldi
-5.365891	arnolds
-5.365891	arnoldy
-5.365891	arnolphe
-5.365891	arnone
-5.365891	arnot
-5.365891	arnott
-5.365891	arnotts
-5.365891	arnow
-5.365891	arnox
-5.365891	arns
-5.365891	arnst
-5.365891	arnstein
-5.365891	arntson
-5.365891	arntz
-5.365891	arntzen
-5.365891	arnulfo
-5.365891	arnwine
-5.365891	arnzen
-5.365891	aro
-5.365891	arocha
-5.365891	arocho
-5.365891	aroma
-5.365891	aromas
-5.365891	aromatherapy
-5.365891	aromatic
-5.365891	aron
-5.365891	arone
-5.365891	aronhalt
-5.365891	aronoff
-5.365891	aronow
-5.365891	aronowitz
-5.365891	arons
-5.365891	aronson
-5.365891	aronstein
-5.365891	arora
-5.365891	aros
-5.365891	arose
-5.365891	around
-5.365891	arousal
-5.365891	arouse
-5.365891	aroused
-5.365891	arouses
-5.365891	arousing
-5.365891	arp
-5.365891	arpa
-5.365891	arpanet
-5.365891	arpin
-5.365891	arpino
-5.365891	arps
-5.365891	arquette
-5.365891	arquilla
-5.365891	arraign
-5.365891	arraigned
-5.365891	arraignment
-5.365891	arraignments
-5.365891	arrange
-5.365891	arranged
-5.365891	arrangement
-5.365891	arrangements
-5.365891	arranger
-5.365891	arranges
-5.365891	arranging
-5.365891	arrant
-5.365891	arrants
-5.365891	arrasmith
-5.365891	array
-5.365891	arrayed
-5.365891	arraying
-5.365891	arrays
-5.365891	arrearage
-5.365891	arrearages
-5.365891	arrears
-5.365891	arredondo
-5.365891	arreguin
-5.365891	arrendondo
-5.365891	arreola
-5.365891	arrest
-5.365891	arrested
-5.365891	arresting
-5.365891	arrests
-5.365891	arrhythmia
-5.365891	arrhythmias
-5.365891	arriaga
-5.365891	arrick
-5.365891	arrieta
-5.365891	arrigo
-5.365891	arrigoni
-5.365891	arrington
-5.365891	arriola
-5.365891	arriortua
-5.365891	arris
-5.365891	arrival
-5.365891	arrivals
-5.365891	arrive
-5.365891	arrived
-5.365891	arrives
-5.365891	arriving
-5.365891	arrogance
-5.365891	arrogant
-5.365891	arrogantly
-5.365891	arrogate
-5.365891	arrow
-5.365891	arrowhead
-5.365891	arrowheads
-5.365891	arrowood
-5.365891	arrowroot
-5.365891	arrows
-5.365891	arrowsmith
-5.365891	arroyo
-5.365891	arruda
-5.365891	arrupe
-5.365891	arsdale
-5.365891	arsenal
-5.365891	arsenals
-5.365891	arsenault
-5.365891	arseneau
-5.365891	arseneault
-5.365891	arsenic
-5.365891	arsenide
-5.365891	arsenio
-5.365891	arslanian
-5.365891	arson
-5.365891	arsonist
-5.365891	arsonists
-5.365891	arsons
-5.365891	arsov
-5.365891	art
-5.365891	artale
-5.365891	artcarve
-5.365891	artcarved
-5.365891	arteaga
-5.365891	artemas
-5.365891	artemus
-5.365891	arter
-5.365891	arterberry
-5.365891	arterburn
-5.365891	arterial
-5.365891	arteries
-5.365891	arteriosclerosis
-5.365891	artery
-5.365891	artes
-5.365891	artesian
-5.365891	artful
-5.365891	artfully
-5.365891	arth
-5.365891	arthotec
-5.365891	arthritic
-5.365891	arthritis
-5.365891	arthropod
-5.365891	arthropods
-5.365891	arthur
-5.365891	arthurian
-5.365891	arthurs
-5.365891	artichoke
-5.365891	artichokes
-5.365891	article
-5.365891	articles
-5.365891	articulate
-5.365891	articulated
-5.365891	articulates
-5.365891	articulating
-5.365891	articulation
-5.365891	articulatory
-5.365891	artie
-5.365891	artifact
-5.365891	artifacts
-5.365891	artifice
-5.365891	artificial
-5.365891	artificially
-5.365891	artillery
-5.365891	artino
-5.365891	artiodactyl
-5.365891	artiodactyls
-5.365891	artis
-5.365891	artisan
-5.365891	artisans
-5.365891	artist
-5.365891	artistic
-5.365891	artistically
-5.365891	artistry
-5.365891	artists
-5.365891	artley
-5.365891	artman
-5.365891	artois
-5.365891	arton
-5.365891	artra
-5.365891	artrip
-5.365891	arts
-5.365891	artsy
-5.365891	artur
-5.365891	arturo
-5.365891	artus
-5.365891	artwork
-5.365891	artworks
-5.365891	arty
-5.365891	artz
-5.365891	artzt
-5.365891	aruba
-5.365891	arum
-5.365891	arunachalam
-5.365891	arundel
-5.365891	arup
-5.365891	arva
-5.365891	arvad
-5.365891	arval
-5.365891	arvanitis
-5.365891	arvay
-5.365891	arve
-5.365891	arvel
-5.365891	arvey
-5.365891	arvid
-5.365891	arvida
-5.365891	arvidson
-5.365891	arvin
-5.365891	arvind
-5.365891	arvizu
-5.365891	arwen
-5.365891	arwood
-5.365891	arx
-5.365891	ary
-5.365891	aryan
-5.365891	arzama
-5.365891	arzamas
-5.365891	arzate
-5.365891	arzola
-5.365891	arzt
-5.365891	as
-5.365891	asa
-5.365891	asaf
-5.365891	asahan
-5.365891	asahara
-5.365891	asahi
-5.365891	asamera
-5.365891	asap
-5.365891	asarco
-5.365891	asaro
-5.365891	asat
-5.365891	asato
-5.365891	asay
-5.365891	asbell
-5.365891	asberry
-5.365891	asbestec
-5.365891	asbestos
-5.365891	asbestosis
-5.365891	asbill
-5.365891	asbridge
-5.365891	asbury
-5.365891	asby
-5.365891	ascap
-5.365891	ascencio
-5.365891	ascend
-5.365891	ascendance
-5.365891	ascendancy
-5.365891	ascendant
-5.365891	ascended
-5.365891	ascendency
-5.365891	ascending
-5.365891	ascends
-5.365891	ascension
-5.365891	ascent
-5.365891	ascertain
-5.365891	ascertained
-5.365891	ascertaining
-5.365891	ascetic
-5.365891	asch
-5.365891	asche
-5.365891	aschenbach
-5.365891	aschenbrenner
-5.365891	ascher
-5.365891	aschoff
-5.365891	ascii
-5.365891	asclad
-5.365891	ascorbic
-5.365891	ascot
-5.365891	ascott
-5.365891	ascribe
-5.365891	ascribed
-5.365891	ascribes
-5.365891	asda
-5.365891	asea
-5.365891	asean
-5.365891	aselma
-5.365891	aseltine
-5.365891	asencio
-5.365891	aseritis
-5.365891	asexual
-5.365891	ash
-5.365891	asha
-5.365891	ashaji
-5.365891	ashame
-5.365891	ashamed
-5.365891	ashare
-5.365891	ashbaugh
-5.365891	ashbrook
-5.365891	ashburn
-5.365891	ashbury
-5.365891	ashby
-5.365891	ashcraft
-5.365891	ashcreek
-5.365891	ashcroft
-5.365891	ashdown
-5.365891	ashe
-5.365891	asheboro
-5.365891	ashen
-5.365891	ashenberg
-5.365891	ashenfelter
-5.365891	asher
-5.365891	ashes
-5.365891	asheville
-5.365891	ashey
-5.365891	ashford
-5.365891	ashis
-5.365891	ashish
-5.365891	ashkenazi
-5.365891	ashkenazis
-5.365891	ashland
-5.365891	ashley
-5.365891	ashlin
-5.365891	ashline
-5.365891	ashlock
-5.365891	ashman
-5.365891	ashmead
-5.365891	ashmore
-5.365891	ashok
-5.365891	ashore
-5.365891	ashrawi
-5.365891	ashtec
-5.365891	ashton
-5.365891	ashtray
-5.365891	ashtrays
-5.365891	ashur
-5.365891	ashurst
-5.365891	ashville
-5.365891	ashwell
-5.365891	ashwood
-5.365891	ashworth
-5.365891	ashy
-5.365891	asia
-5.365891	asiain
-5.365891	asiamerica
-5.365891	asian
-5.365891	asians
-5.365891	asiatic
-5.365891	asiaweek
-5.365891	asic
-5.365891	asics
-5.365891	aside
-5.365891	asides
-5.365891	asiel
-5.365891	asimov
-5.365891	asimow
-5.365891	asinine
-5.365891	ask
-5.365891	aska
-5.365891	askance
-5.365891	asked
-5.365891	asker
-5.365891	askers
-5.365891	askew
-5.365891	askey
-5.365891	askin
-5.365891	asking
-5.365891	askington
-5.365891	askins
-5.365891	asko
-5.365891	askoldov
-5.365891	askren
-5.365891	asks
-5.365891	aslanian
-5.365891	asleep
-5.365891	asleson
-5.365891	aslin
-5.365891	asman
-5.365891	asmara
-5.365891	asmaras
-5.365891	asmodeus
-5.365891	asmus
-5.365891	asmussen
-5.365891	asner
-5.365891	asp
-5.365891	asparagus
-5.365891	aspartame
-5.365891	aspect
-5.365891	aspects
-5.365891	aspen
-5.365891	aspens
-5.365891	asper
-5.365891	asperity
-5.365891	aspersion
-5.365891	aspersions
-5.365891	asphalt
-5.365891	asphyxiate
-5.365891	asphyxiated
-5.365891	asphyxiates
-5.365891	asphyxiating
-5.365891	aspin
-5.365891	aspinall
-5.365891	aspinwall
-5.365891	aspirant
-5.365891	aspirants
-5.365891	aspirate
-5.365891	aspirated
-5.365891	aspirates
-5.365891	aspiration
-5.365891	aspirations
-5.365891	aspire
-5.365891	aspired
-5.365891	aspires
-5.365891	aspirin
-5.365891	aspiring
-5.365891	asplund
-5.365891	aspnes
-5.365891	asquith
-5.365891	ass
-5.365891	assad
-5.365891	assaf
-5.365891	assail
-5.365891	assailant
-5.365891	assailants
-5.365891	assailed
-5.365891	assailing
-5.365891	assails
-5.365891	assante
-5.365891	assassin
-5.365891	assassinate
-5.365891	assassinated
-5.365891	assassinating
-5.365891	assassination
-5.365891	assassinations
-5.365891	assassins
-5.365891	assault
-5.365891	assaulted
-5.365891	assaulting
-5.365891	assaultive
-5.365891	assaults
-5.365891	assay
-5.365891	assayer
-5.365891	assed
-5.365891	asselin
-5.365891	asselstine
-5.365891	assemblage
-5.365891	assemble
-5.365891	assembled
-5.365891	assembler
-5.365891	assemblers
-5.365891	assembles
-5.365891	assemblies
-5.365891	assembling
-5.365891	assembly
-5.365891	assemblyman
-5.365891	assemblymen
-5.365891	assemblywoman
-5.365891	assent
-5.365891	assert
-5.365891	asserted
-5.365891	assertedly
-5.365891	asserting
-5.365891	assertion
-5.365891	assertions
-5.365891	assertive
-5.365891	assertively
-5.365891	assertiveness
-5.365891	asserts
-5.365891	asses
-5.365891	assess
-5.365891	assessed
-5.365891	assesses
-5.365891	assessing
-5.365891	assessment
-5.365891	assessments
-5.365891	assessor
-5.365891	assessors
-5.365891	asset
-5.365891	assets
-5.365891	asshole
-5.365891	assicurazioni
-5.365891	assiduous
-5.365891	assiduously
-5.365891	assign
-5.365891	assigned
-5.365891	assigning
-5.365891	assignment
-5.365891	assignments
-5.365891	assigns
-5.365891	assimilate
-5.365891	assimilated
-5.365891	assimilating
-5.365891	assimilation
-5.365891	assira
-5.365891	assisi
-5.365891	assist
-5.365891	assistance
-5.365891	assistant
-5.365891	assistants
-5.365891	assisted
-5.365891	assisting
-5.365891	assists
-5.365891	assocation
-5.365891	associate
-5.365891	associated
-5.365891	associates
-5.365891	associating
-5.365891	association
-5.365891	associations
-5.365891	associes
-5.365891	assort
-5.365891	assorted
-5.365891	assortment
-5.365891	assuage
-5.365891	assuaged
-5.365891	assubel
-5.365891	assume
-5.365891	assumed
-5.365891	assumes
-5.365891	assuming
-5.365891	assumption
-5.365891	assumptions
-5.365891	assurance
-5.365891	assurances
-5.365891	assuras
-5.365891	assure
-5.365891	assured
-5.365891	assuredly
-5.365891	assures
-5.365891	assuring
-5.365891	assyria
-5.365891	assyrian
-5.365891	assyrians
-5.365891	ast
-5.365891	asta
-5.365891	astaire
-5.365891	aster
-5.365891	asterisk
-5.365891	asteroid
-5.365891	asteroids
-5.365891	asters
-5.365891	asthma
-5.365891	asthmatic
-5.365891	asthmatics
-5.365891	astigmatism
-5.365891	astin
-5.365891	astle
-5.365891	astley
-5.365891	aston
-5.365891	astonish
-5.365891	astonished
-5.365891	astonishing
-5.365891	astonishingly
-5.365891	astonishment
-5.365891	astor
-5.365891	astore
-5.365891	astorga
-5.365891	astoria
-5.365891	astorino
-5.365891	astound
-5.365891	astounded
-5.365891	astounding
-5.365891	astoundingly
-5.365891	astounds
-5.365891	astra
-5.365891	astraddle
-5.365891	astrakhan
-5.365891	astral
-5.365891	astray
-5.365891	astred
-5.365891	astrid
-5.365891	astride
-5.365891	astringent
-5.365891	astringents
-5.365891	astro
-5.365891	astrodome
-5.365891	astrogeology
-5.365891	astrologer
-5.365891	astrologers
-5.365891	astrological
-5.365891	astrology
-5.365891	astronaut
-5.365891	astronautic
-5.365891	astronautical
-5.365891	astronautics
-5.365891	astronauts
-5.365891	astronomer
-5.365891	astronomers
-5.365891	astronomical
-5.365891	astronomically
-5.365891	astronomy
-5.365891	astrophotography
-5.365891	astrophysicist
-5.365891	astrophysics
-5.365891	astros
-5.365891	astrotech
-5.365891	astroturf
-5.365891	astute
-5.365891	astutely
-5.365891	astuteness
-5.365891	asuncion
