Language model created by QuickLM on Sun May  1 00:54:11 EDT 2016
Copyright (c) 1996-2010 Carnegie Mellon University and Alexander I. Rudnicky

The model is in standard ARPA format, designed by Doug Paul while he was at MITRE.

The code that was used to produce this language model is available in Open Source.
Please visit http://www.speech.cs.cmu.edu/tools/ for more information

The (fixed) discount mass is 0.5. The backoffs are computed using the ratio method.
This model based on a corpus of 31 sentences and 38 words

\data\
ngram 1=38
ngram 2=63
ngram 3=45

\1-grams:
-2.4082 84 -0.2450
-0.9169 </s> -0.3010
-0.9169 <s> -0.2430
-2.4082 A -0.2959
-2.1072 ABOUT -0.2450
-2.4082 ARMSTRONG -0.2450
-2.4082 ATRIUM -0.2450
-2.1072 CALCULATE -0.2450
-1.9311 COMMAND -0.2411
-2.4082 CONFERENCE -0.2993
-2.1072 DANCE -0.2450
-1.9311 DOCTOR -0.2959
-2.4082 EB -0.2993
-2.4082 GIVE -0.2855
-2.4082 HALL -0.2450
-2.4082 INTEL -0.2976
-2.4082 JEEVES -0.2450
-2.4082 JOSH -0.2993
-2.1072 LAB -0.2450
-2.4082 LEADER -0.2450
-2.4082 LISTEN -0.2450
-2.4082 LOCATION -0.2450
-2.4082 MATHIAS -0.2993
-1.4540 ME -0.2855
-2.4082 PERKOWSKI -0.2450
-2.4082 PERSON -0.2450
-2.4082 RICK -0.2993
-2.4082 ROBOTICS -0.2976
-2.4082 ROOM -0.2450
-2.4082 SACKOS -0.2450
-2.4082 SONG -0.2450
-2.4082 SUNARDI -0.2450
-1.6301 TAKE -0.2855
-2.1072 TELL -0.2855
-2.1072 THE -0.2450
-1.6301 TO -0.2372
-2.1072 TOUR -0.2450
-2.1072 YOUR -0.2450

\2-grams:
-0.3010 84 </s> -0.3010
-1.7924 <s> ATRIUM 0.0000
-1.4914 <s> CALCULATE 0.0000
-1.4914 <s> COMMAND -0.1249
-1.7924 <s> CONFERENCE 0.0000
-1.4914 <s> DANCE 0.0000
-1.3153 <s> DOCTOR 0.0000
-1.7924 <s> EB 0.0000
-1.7924 <s> GIVE 0.0000
-1.7924 <s> INTEL 0.0000
-1.7924 <s> JEEVES 0.0000
-1.7924 <s> JOSH 0.0000
-1.7924 <s> LEADER 0.0000
-1.7924 <s> LISTEN 0.0000
-1.7924 <s> MATHIAS 0.0000
-1.7924 <s> RICK 0.0000
-1.7924 <s> ROBOTICS 0.0000
-1.0142 <s> TAKE 0.0000
-1.4914 <s> TELL 0.0000
-1.4914 <s> TOUR 0.0000
-0.3010 A COMMAND -0.2218
-0.3010 ABOUT </s> -0.3010
-0.3010 ARMSTRONG </s> -0.3010
-0.3010 ATRIUM </s> -0.3010
-0.3010 CALCULATE </s> -0.3010
-0.7782 COMMAND </s> -0.3010
-0.7782 COMMAND LOCATION 0.0000
-0.7782 COMMAND PERSON 0.0000
-0.3010 CONFERENCE ROOM 0.0000
-0.3010 DANCE </s> -0.3010
-0.7782 DOCTOR HALL 0.0000
-0.7782 DOCTOR PERKOWSKI 0.0000
-0.7782 DOCTOR SONG 0.0000
-0.3010 EB 84 0.0000
-0.3010 GIVE ME -0.2762
-0.3010 HALL </s> -0.3010
-0.3010 INTEL LAB 0.0000
-0.3010 JEEVES </s> -0.3010
-0.3010 JOSH SACKOS 0.0000
-0.3010 LAB </s> -0.3010
-0.3010 LEADER </s> -0.3010
-0.3010 LISTEN </s> -0.3010
-0.3010 LOCATION </s> -0.3010
-0.3010 MATHIAS SUNARDI 0.0000
-1.2553 ME A 0.0000
-0.9542 ME ABOUT 0.0000
-0.4771 ME TO 0.0000
-0.3010 PERKOWSKI </s> -0.3010
-0.3010 PERSON </s> -0.3010
-0.3010 RICK ARMSTRONG 0.0000
-0.3010 ROBOTICS LAB 0.0000
-0.3010 ROOM </s> -0.3010
-0.3010 SACKOS </s> -0.3010
-0.3010 SONG </s> -0.3010
-0.3010 SUNARDI </s> -0.3010
-0.3010 TAKE ME -0.1249
-0.3010 TELL ME -0.2499
-0.3010 THE </s> -0.3010
-0.7782 TO </s> -0.3010
-0.7782 TO THE 0.0000
-0.7782 TO YOUR 0.0000
-0.3010 TOUR </s> -0.3010
-0.3010 YOUR </s> -0.3010

\3-grams:
-0.3010 <s> ATRIUM </s>
-0.3010 <s> CALCULATE </s>
-0.6021 <s> COMMAND LOCATION
-0.6021 <s> COMMAND PERSON
-0.3010 <s> CONFERENCE ROOM
-0.3010 <s> DANCE </s>
-0.7782 <s> DOCTOR HALL
-0.7782 <s> DOCTOR PERKOWSKI
-0.7782 <s> DOCTOR SONG
-0.3010 <s> EB 84
-0.3010 <s> GIVE ME
-0.3010 <s> INTEL LAB
-0.3010 <s> JEEVES </s>
-0.3010 <s> JOSH SACKOS
-0.3010 <s> LEADER </s>
-0.3010 <s> LISTEN </s>
-0.3010 <s> MATHIAS SUNARDI
-0.3010 <s> RICK ARMSTRONG
-0.3010 <s> ROBOTICS LAB
-0.3010 <s> TAKE ME
-0.3010 <s> TELL ME
-0.3010 <s> TOUR </s>
-0.3010 A COMMAND </s>
-0.3010 COMMAND LOCATION </s>
-0.3010 COMMAND PERSON </s>
-0.3010 CONFERENCE ROOM </s>
-0.3010 DOCTOR HALL </s>
-0.3010 DOCTOR PERKOWSKI </s>
-0.3010 DOCTOR SONG </s>
-0.3010 EB 84 </s>
-0.3010 GIVE ME A
-0.3010 INTEL LAB </s>
-0.3010 JOSH SACKOS </s>
-0.3010 MATHIAS SUNARDI </s>
-0.3010 ME A COMMAND
-0.3010 ME ABOUT </s>
-0.7782 ME TO </s>
-0.7782 ME TO THE
-0.7782 ME TO YOUR
-0.3010 RICK ARMSTRONG </s>
-0.3010 ROBOTICS LAB </s>
-0.3010 TAKE ME TO
-0.3010 TELL ME ABOUT
-0.3010 TO THE </s>
-0.3010 TO YOUR </s>

\end\
