Language model created by QuickLM on Thu Jun 30 14:56:55 EDT 2016
Copyright (c) 1996-2010 Carnegie Mellon University and Alexander I. Rudnicky

The model is in standard ARPA format, designed by Doug Paul while he was at MITRE.

The code that was used to produce this language model is available in Open Source.
Please visit http://www.speech.cs.cmu.edu/tools/ for more information

The (fixed) discount mass is 0.5. The backoffs are computed using the ratio method.
This model based on a corpus of 104 sentences and 54 words

\data\
ngram 1=54
ngram 2=103
ngram 3=108

\1-grams:
-1.0715 </s> -0.3010
-1.0715 <s> -0.2366
-2.0471 A -0.2957
-1.6114 ABOUT -0.2387
-2.4864 ARMSTRONG -0.2625
-3.0885 ATRIUM -0.2625
-3.0885 BYE -0.2968
-2.7875 CALCULATE -0.2625
-2.7875 CAN -0.3003
-3.0885 CONFERENCE -0.3007
-2.7875 DANCE -0.2625
-2.3103 DOCOTOR -0.2946
-2.0093 DOCTOR -0.2946
-2.6114 EB -0.3000
-2.6114 EIGHTY -0.3000
-2.6114 FOUR -0.2625
-2.1342 GIVE -0.2781
-2.3103 HALL -0.2625
-2.7875 HELLO -0.2968
-2.7875 HI -0.2968
-2.7875 I -0.3003
-2.4864 INTEL -0.2950
-3.0885 INTELL -0.2950
-2.1342 INTELLIGENT -0.2953
-2.0093 JEEVES -0.2579
-2.4864 JOSH -0.2996
-1.8580 LAB -0.2625
-2.4864 LABORATORY -0.2625
-2.3103 LEADER -0.2625
-2.7875 LIKE -0.2971
-2.6114 LISTEN -0.2625
-2.7875 MATHIA -0.2996
-2.7875 MATHIAS -0.2996
-1.2891 ME -0.2774
-2.3103 PERKOWSKI -0.2625
-2.4864 PLEASE -0.2978
-2.7875 PORTLAND -0.3003
-2.7875 PSU -0.2625
-2.4864 RICK -0.2996
-1.8844 ROBOTICS -0.2935
-3.0885 ROOM -0.2625
-2.4864 SACKOS -0.2625
-2.3103 SONG -0.2625
-2.7875 STATE -0.3003
-2.4864 SUNARDI -0.2625
-1.7083 TAKE -0.2781
-1.6114 TELL -0.2781
-1.8332 THE -0.2512
-1.7083 TO -0.2472
-1.9124 TOUR -0.2625
-2.7875 UNIVERSITY -0.2625
-2.7875 WOULD -0.3003
-2.7875 YOU -0.2996
-2.3103 YOUR -0.2602

\2-grams:
-2.3181 <s> ATRIUM 0.0000
-2.3181 <s> BYE 0.0000
-2.0170 <s> CALCULATE 0.0000
-2.0170 <s> CAN 0.0000
-2.3181 <s> CONFERENCE 0.0000
-2.0170 <s> DANCE 0.0000
-1.5399 <s> DOCTOR 0.0000
-2.3181 <s> EB 0.0000
-1.8409 <s> GIVE 0.0000
-2.0170 <s> HELLO 0.0000
-2.0170 <s> HI 0.0000
-2.0170 <s> I 0.0000
-2.3181 <s> INTELL 0.0000
-2.3181 <s> INTELLIGENT 0.0000
-1.4730 <s> JEEVES 0.0000
-2.0170 <s> JOSH 0.0000
-2.0170 <s> LEADER 0.0000
-2.3181 <s> LISTEN 0.0000
-2.0170 <s> MATHIAS 0.0000
-2.0170 <s> PLEASE 0.0000
-2.0170 <s> RICK 0.0000
-2.3181 <s> ROBOTICS -0.0969
-0.9379 <s> TAKE 0.0000
-0.8409 <s> TELL 0.0000
-1.7160 <s> TOUR 0.0000
-0.3010 A TOUR 0.0000
-1.4771 ABOUT </s> -0.3010
-1.0000 ABOUT DOCOTOR 0.0000
-1.4771 ABOUT JOSH 0.0000
-1.4771 ABOUT MATHIA 0.0000
-1.4771 ABOUT PORTLAND 0.0000
-1.4771 ABOUT PSU 0.0000
-1.4771 ABOUT RICK 0.0000
-1.4771 ABOUT ROBOTICS -0.0969
-0.8751 ABOUT THE -0.0458
-1.4771 ABOUT YOUR -0.1249
-0.3010 ARMSTRONG </s> -0.3010
-0.3010 ATRIUM </s> -0.3010
-0.3010 BYE JEEVES -0.1249
-0.3010 CALCULATE </s> -0.3010
-0.3010 CAN YOU 0.0000
-0.3010 CONFERENCE ROOM 0.0000
-0.3010 DANCE </s> -0.3010
-0.7782 DOCOTOR HALL 0.0000
-0.7782 DOCOTOR PERKOWSKI 0.0000
-0.7782 DOCOTOR SONG 0.0000
-0.7782 DOCTOR HALL 0.0000
-0.7782 DOCTOR PERKOWSKI 0.0000
-0.7782 DOCTOR SONG 0.0000
-0.3010 EB EIGHTY 0.0000
-0.3010 EIGHTY FOUR 0.0000
-0.3010 FOUR </s> -0.3010
-0.3010 GIVE ME -0.2688
-0.3010 HALL </s> -0.3010
-0.3010 HELLO JEEVES -0.1249
-0.3010 HI JEEVES -0.1249
-0.3010 I WOULD 0.0000
-0.3010 INTEL LAB 0.0000
-0.3010 INTELL LAB 0.0000
-0.3010 INTELLIGENT ROBOTICS 0.0000
-0.4771 JEEVES </s> -0.3010
-1.0792 JEEVES GIVE 0.0000
-1.0792 JEEVES LISTEN 0.0000
-0.3010 JOSH SACKOS 0.0000
-0.3010 LAB </s> -0.3010
-0.3010 LABORATORY </s> -0.3010
-0.3010 LEADER </s> -0.3010
-0.3010 LIKE A 0.0000
-0.3010 LISTEN </s> -0.3010
-0.3010 MATHIA SUNARDI 0.0000
-0.3010 MATHIAS SUNARDI 0.0000
-1.1461 ME A 0.0000
-0.6232 ME ABOUT 0.0000
-0.7202 ME TO 0.0000
-0.3010 PERKOWSKI </s> -0.3010
-0.3010 PLEASE GIVE 0.0000
-0.3010 PORTLAND STATE 0.0000
-0.3010 PSU </s> -0.3010
-0.3010 RICK ARMSTRONG 0.0000
-0.4260 ROBOTICS LAB 0.0000
-0.9031 ROBOTICS LABORATORY 0.0000
-0.3010 ROOM </s> -0.3010
-0.3010 SACKOS </s> -0.3010
-0.3010 SONG </s> -0.3010
-0.3010 STATE UNIVERSITY 0.0000
-0.3010 SUNARDI </s> -0.3010
-0.3010 TAKE ME -0.2093
-0.3010 TELL ME -0.1829
-1.2553 THE </s> -0.3010
-0.9542 THE INTEL 0.0000
-0.6532 THE INTELLIGENT 0.0000
-0.9542 THE ROBOTICS -0.0969
-1.3802 TO </s> -0.3010
-0.9031 TO DOCTOR 0.0000
-1.3802 TO EB 0.0000
-0.6812 TO THE 0.0000
-1.0792 TO YOUR 0.0000
-0.3010 TOUR </s> -0.3010
-0.3010 UNIVERSITY </s> -0.3010
-0.3010 WOULD LIKE 0.0000
-0.3010 YOU PLEASE 0.0000
-0.7782 YOUR </s> -0.3010
-0.4771 YOUR LEADER 0.0000

\3-grams:
-0.3010 <s> ATRIUM </s>
-0.3010 <s> BYE JEEVES
-0.3010 <s> CALCULATE </s>
-0.3010 <s> CAN YOU
-0.3010 <s> CONFERENCE ROOM
-0.3010 <s> DANCE </s>
-0.7782 <s> DOCTOR HALL
-0.7782 <s> DOCTOR PERKOWSKI
-0.7782 <s> DOCTOR SONG
-0.3010 <s> EB EIGHTY
-0.3010 <s> GIVE ME
-0.3010 <s> HELLO JEEVES
-0.3010 <s> HI JEEVES
-0.3010 <s> I WOULD
-0.3010 <s> INTELL LAB
-0.3010 <s> INTELLIGENT ROBOTICS
-0.6690 <s> JEEVES </s>
-0.8451 <s> JEEVES GIVE
-0.8451 <s> JEEVES LISTEN
-0.3010 <s> JOSH SACKOS
-0.3010 <s> LEADER </s>
-0.3010 <s> LISTEN </s>
-0.3010 <s> MATHIAS SUNARDI
-0.3010 <s> PLEASE GIVE
-0.3010 <s> RICK ARMSTRONG
-0.3010 <s> ROBOTICS LAB
-0.3010 <s> TAKE ME
-0.3010 <s> TELL ME
-0.3010 <s> TOUR </s>
-0.3010 A TOUR </s>
-0.7782 ABOUT DOCOTOR HALL
-0.7782 ABOUT DOCOTOR PERKOWSKI
-0.7782 ABOUT DOCOTOR SONG
-0.3010 ABOUT JOSH SACKOS
-0.3010 ABOUT MATHIA SUNARDI
-0.3010 ABOUT PORTLAND STATE
-0.3010 ABOUT PSU </s>
-0.3010 ABOUT RICK ARMSTRONG
-0.3010 ABOUT ROBOTICS LAB
-0.9031 ABOUT THE INTEL
-0.6021 ABOUT THE INTELLIGENT
-0.9031 ABOUT THE ROBOTICS
-0.3010 ABOUT YOUR LEADER
-0.3010 BYE JEEVES </s>
-0.3010 CAN YOU PLEASE
-0.3010 CONFERENCE ROOM </s>
-0.3010 DOCOTOR HALL </s>
-0.3010 DOCOTOR PERKOWSKI </s>
-0.3010 DOCOTOR SONG </s>
-0.3010 DOCTOR HALL </s>
-0.3010 DOCTOR PERKOWSKI </s>
-0.3010 DOCTOR SONG </s>
-0.3010 EB EIGHTY FOUR
-0.3010 EIGHTY FOUR </s>
-0.3010 GIVE ME A
-0.3010 HELLO JEEVES </s>
-0.3010 HI JEEVES </s>
-0.3010 I WOULD LIKE
-0.3010 INTEL LAB </s>
-0.3010 INTELL LAB </s>
-0.5563 INTELLIGENT ROBOTICS LAB
-0.6532 INTELLIGENT ROBOTICS LABORATORY
-0.3010 JEEVES GIVE ME
-0.3010 JEEVES LISTEN </s>
-0.3010 JOSH SACKOS </s>
-0.3010 LIKE A TOUR
-0.3010 MATHIA SUNARDI </s>
-0.3010 MATHIAS SUNARDI </s>
-0.3010 ME A TOUR
-1.4771 ME ABOUT </s>
-1.0000 ME ABOUT DOCOTOR
-1.4771 ME ABOUT JOSH
-1.4771 ME ABOUT MATHIA
-1.4771 ME ABOUT PORTLAND
-1.4771 ME ABOUT PSU
-1.4771 ME ABOUT RICK
-1.4771 ME ABOUT ROBOTICS
-0.8751 ME ABOUT THE
-1.4771 ME ABOUT YOUR
-1.3802 ME TO </s>
-0.9031 ME TO DOCTOR
-1.3802 ME TO EB
-0.6812 ME TO THE
-1.0792 ME TO YOUR
-0.3010 PLEASE GIVE ME
-0.3010 PORTLAND STATE UNIVERSITY
-0.3010 RICK ARMSTRONG </s>
-0.3010 ROBOTICS LAB </s>
-0.3010 ROBOTICS LABORATORY </s>
-0.3010 STATE UNIVERSITY </s>
-0.3010 TAKE ME TO
-0.3010 TELL ME ABOUT
-0.3010 THE INTEL LAB
-0.3010 THE INTELLIGENT ROBOTICS
-0.3010 THE ROBOTICS LAB
-0.7782 TO DOCTOR HALL
-0.7782 TO DOCTOR PERKOWSKI
-0.7782 TO DOCTOR SONG
-0.3010 TO EB EIGHTY
-1.0000 TO THE </s>
-1.0000 TO THE INTEL
-0.6990 TO THE INTELLIGENT
-1.0000 TO THE ROBOTICS
-0.6021 TO YOUR </s>
-0.6021 TO YOUR LEADER
-0.3010 WOULD LIKE A
-0.3010 YOU PLEASE GIVE
-0.3010 YOUR LEADER </s>

\end\
