Language model created by QuickLM on Tue Jun 28 16:09:23 EDT 2016
Copyright (c) 1996-2010 Carnegie Mellon University and Alexander I. Rudnicky

The model is in standard ARPA format, designed by Doug Paul while he was at MITRE.

The code that was used to produce this language model is available in Open Source.
Please visit http://www.speech.cs.cmu.edu/tools/ for more information

The (fixed) discount mass is 0.5. The backoffs are computed using the ratio method.
This model based on a corpus of 61 sentences and 49 words

\data\
ngram 1=49
ngram 2=93
ngram 3=94

\1-grams:
-2.8021 84 -0.2571
-1.0168 </s> -0.3010
-1.0168 <s> -0.2401
-2.1031 A -0.2955
-1.6881 ABOUT -0.2385
-2.3250 ARMSTRONG -0.2571
-2.8021 ATRIUM -0.2571
-2.5011 CALCULATE -0.2571
-2.8021 CAN -0.3003
-2.8021 CONFERENCE -0.3003
-2.5011 DANCE -0.2571
-2.3250 DOCOTOR -0.2927
-1.8478 DOCTOR -0.2927
-2.5011 EB -0.2997
-2.8021 EIGHTY -0.3003
-2.8021 FOUR -0.2571
-2.2000 GIVE -0.2800
-2.2000 HALL -0.2571
-2.8021 I -0.3003
-2.3250 INTEL -0.2969
-2.2000 JEEVES -0.2525
-2.3250 JOSH -0.2990
-2.0239 LAB -0.2571
-2.2000 LEADER -0.2571
-2.8021 LIKE -0.2976
-2.5011 LISTEN -0.2571
-2.8021 MATHIA -0.2990
-2.5011 MATHIAS -0.2990
-1.3250 ME -0.2793
-2.2000 PERKOWSKI -0.2571
-2.5011 PLEASE -0.2983
-2.8021 PORTLAND -0.3003
-2.8021 PSU -0.2571
-2.3250 RICK -0.2990
-2.3250 ROBOTICS -0.2969
-2.8021 ROOM -0.2571
-2.3250 SACKOS -0.2571
-2.2000 SONG -0.2571
-2.8021 STATE -0.3003
-2.3250 SUNARDI -0.2571
-1.6881 TAKE -0.2800
-1.6881 TELL -0.2800
-2.1031 THE -0.2525
-1.6881 TO -0.2417
-1.8990 TOUR -0.2571
-2.8021 UNIVERSITY -0.2571
-2.8021 WOULD -0.3003
-2.8021 YOU -0.2997
-2.2000 YOUR -0.2541

\2-grams:
-0.3010 84 </s> -0.3010
-2.0864 <s> ATRIUM 0.0000
-1.7853 <s> CALCULATE 0.0000
-2.0864 <s> CAN 0.0000
-2.0864 <s> CONFERENCE 0.0000
-1.7853 <s> DANCE 0.0000
-1.3082 <s> DOCTOR 0.0000
-2.0864 <s> EB -0.1761
-2.0864 <s> GIVE 0.0000
-2.0864 <s> I 0.0000
-2.0864 <s> INTEL 0.0000
-1.4843 <s> JEEVES 0.0000
-1.7853 <s> JOSH 0.0000
-1.7853 <s> LEADER 0.0000
-2.0864 <s> LISTEN 0.0000
-1.7853 <s> MATHIAS 0.0000
-2.0864 <s> PLEASE 0.0000
-1.7853 <s> RICK 0.0000
-2.0864 <s> ROBOTICS 0.0000
-0.9724 <s> TAKE 0.0000
-0.9724 <s> TELL 0.0000
-1.6092 <s> TOUR 0.0000
-0.3010 A TOUR 0.0000
-1.1139 ABOUT </s> -0.3010
-0.9379 ABOUT DOCOTOR 0.0000
-1.4150 ABOUT JOSH 0.0000
-1.4150 ABOUT MATHIA 0.0000
-1.4150 ABOUT PORTLAND 0.0000
-1.4150 ABOUT PSU 0.0000
-1.4150 ABOUT RICK 0.0000
-1.4150 ABOUT ROBOTICS 0.0000
-1.4150 ABOUT THE -0.2041
-1.4150 ABOUT YOUR -0.1761
-0.3010 ARMSTRONG </s> -0.3010
-0.3010 ATRIUM </s> -0.3010
-0.3010 CALCULATE </s> -0.3010
-0.3010 CAN YOU 0.0000
-0.3010 CONFERENCE ROOM 0.0000
-0.3010 DANCE </s> -0.3010
-0.7782 DOCOTOR HALL 0.0000
-0.7782 DOCOTOR PERKOWSKI 0.0000
-0.7782 DOCOTOR SONG 0.0000
-0.7782 DOCTOR HALL 0.0000
-0.7782 DOCTOR PERKOWSKI 0.0000
-0.7782 DOCTOR SONG 0.0000
-0.6021 EB 84 0.0000
-0.6021 EB EIGHTY 0.0000
-0.3010 EIGHTY FOUR 0.0000
-0.3010 FOUR </s> -0.3010
-0.3010 GIVE ME -0.2711
-0.3010 HALL </s> -0.3010
-0.3010 I WOULD 0.0000
-0.3010 INTEL LAB 0.0000
-0.6021 JEEVES </s> -0.3010
-0.9031 JEEVES GIVE 0.0000
-0.9031 JEEVES LISTEN 0.0000
-0.3010 JOSH SACKOS 0.0000
-0.3010 LAB </s> -0.3010
-0.3010 LEADER </s> -0.3010
-0.3010 LIKE A 0.0000
-0.3010 LISTEN </s> -0.3010
-0.3010 MATHIA SUNARDI 0.0000
-0.3010 MATHIAS SUNARDI 0.0000
-1.1761 ME A 0.0000
-0.6642 ME ABOUT 0.0000
-0.6642 ME TO 0.0000
-0.3010 PERKOWSKI </s> -0.3010
-0.3010 PLEASE GIVE 0.0000
-0.3010 PORTLAND STATE 0.0000
-0.3010 PSU </s> -0.3010
-0.3010 RICK ARMSTRONG 0.0000
-0.3010 ROBOTICS LAB 0.0000
-0.3010 ROOM </s> -0.3010
-0.3010 SACKOS </s> -0.3010
-0.3010 SONG </s> -0.3010
-0.3010 STATE UNIVERSITY 0.0000
-0.3010 SUNARDI </s> -0.3010
-0.3010 TAKE ME -0.1950
-0.3010 TELL ME -0.1950
-0.6990 THE </s> -0.3010
-0.6990 THE INTEL 0.0000
-1.0000 THE ROBOTICS 0.0000
-1.1139 TO </s> -0.3010
-0.9379 TO DOCTOR 0.0000
-1.4150 TO EB -0.1761
-0.8129 TO THE 0.0000
-0.9379 TO YOUR 0.0000
-0.3010 TOUR </s> -0.3010
-0.3010 UNIVERSITY </s> -0.3010
-0.3010 WOULD LIKE 0.0000
-0.3010 YOU PLEASE 0.0000
-0.6021 YOUR </s> -0.3010
-0.6021 YOUR LEADER 0.0000

\3-grams:
-0.3010 <s> ATRIUM </s>
-0.3010 <s> CALCULATE </s>
-0.3010 <s> CAN YOU
-0.3010 <s> CONFERENCE ROOM
-0.3010 <s> DANCE </s>
-0.7782 <s> DOCTOR HALL
-0.7782 <s> DOCTOR PERKOWSKI
-0.7782 <s> DOCTOR SONG
-0.3010 <s> EB 84
-0.3010 <s> GIVE ME
-0.3010 <s> I WOULD
-0.3010 <s> INTEL LAB
-0.6021 <s> JEEVES </s>
-0.9031 <s> JEEVES GIVE
-0.9031 <s> JEEVES LISTEN
-0.3010 <s> JOSH SACKOS
-0.3010 <s> LEADER </s>
-0.3010 <s> LISTEN </s>
-0.3010 <s> MATHIAS SUNARDI
-0.3010 <s> PLEASE GIVE
-0.3010 <s> RICK ARMSTRONG
-0.3010 <s> ROBOTICS LAB
-0.3010 <s> TAKE ME
-0.3010 <s> TELL ME
-0.3010 <s> TOUR </s>
-0.3010 A TOUR </s>
-0.7782 ABOUT DOCOTOR HALL
-0.7782 ABOUT DOCOTOR PERKOWSKI
-0.7782 ABOUT DOCOTOR SONG
-0.3010 ABOUT JOSH SACKOS
-0.3010 ABOUT MATHIA SUNARDI
-0.3010 ABOUT PORTLAND STATE
-0.3010 ABOUT PSU </s>
-0.3010 ABOUT RICK ARMSTRONG
-0.3010 ABOUT ROBOTICS LAB
-0.3010 ABOUT THE INTEL
-0.3010 ABOUT YOUR LEADER
-0.3010 CAN YOU PLEASE
-0.3010 CONFERENCE ROOM </s>
-0.3010 DOCOTOR HALL </s>
-0.3010 DOCOTOR PERKOWSKI </s>
-0.3010 DOCOTOR SONG </s>
-0.3010 DOCTOR HALL </s>
-0.3010 DOCTOR PERKOWSKI </s>
-0.3010 DOCTOR SONG </s>
-0.3010 EB 84 </s>
-0.3010 EB EIGHTY FOUR
-0.3010 EIGHTY FOUR </s>
-0.3010 GIVE ME A
-0.3010 I WOULD LIKE
-0.3010 INTEL LAB </s>
-0.3010 JEEVES GIVE ME
-0.3010 JEEVES LISTEN </s>
-0.3010 JOSH SACKOS </s>
-0.3010 LIKE A TOUR
-0.3010 MATHIA SUNARDI </s>
-0.3010 MATHIAS SUNARDI </s>
-0.3010 ME A TOUR
-1.1139 ME ABOUT </s>
-0.9379 ME ABOUT DOCOTOR
-1.4150 ME ABOUT JOSH
-1.4150 ME ABOUT MATHIA
-1.4150 ME ABOUT PORTLAND
-1.4150 ME ABOUT PSU
-1.4150 ME ABOUT RICK
-1.4150 ME ABOUT ROBOTICS
-1.4150 ME ABOUT THE
-1.4150 ME ABOUT YOUR
-1.1139 ME TO </s>
-0.9379 ME TO DOCTOR
-1.4150 ME TO EB
-0.8129 ME TO THE
-0.9379 ME TO YOUR
-0.3010 PLEASE GIVE ME
-0.3010 PORTLAND STATE UNIVERSITY
-0.3010 RICK ARMSTRONG </s>
-0.3010 ROBOTICS LAB </s>
-0.3010 STATE UNIVERSITY </s>
-0.3010 TAKE ME TO
-0.3010 TELL ME ABOUT
-0.3010 THE INTEL LAB
-0.3010 THE ROBOTICS LAB
-0.7782 TO DOCTOR HALL
-0.7782 TO DOCTOR PERKOWSKI
-0.7782 TO DOCTOR SONG
-0.3010 TO EB EIGHTY
-0.6021 TO THE </s>
-0.9031 TO THE INTEL
-0.9031 TO THE ROBOTICS
-0.4771 TO YOUR </s>
-0.7782 TO YOUR LEADER
-0.3010 WOULD LIKE A
-0.3010 YOU PLEASE GIVE
-0.3010 YOUR LEADER </s>

\end\
